svm_type epsilon_svr
kernel_type rbf
gamma 0.0588235
nr_class 2
total_sv 79
rho -0.265973
SV
0.3631913148465803 1:-1.30457 2:-1.51069 3:1.93593 4:-0.148314 5:-0.842776 6:0.322141 7:0.287755 8:-1.89096 9:-1.26826 10:-0.852728 11:0.447368 12:1.48504 13:1.9789 14:0.939651 15:-1.26859 16:-0.12775 17:0.861894 
1 1:-2.46899 2:-0.896641 3:2.9424 4:-0.866406 5:0.958501 6:1.39311 7:2.26426 8:0.748936 9:0.00615078 10:0.747786 11:0.427697 12:1.9038 13:0.801759 14:1.00106 15:-1.11497 16:0.67436 17:0.313801 
1 1:-2.94163 2:-0.855902 3:-0.536591 4:-0.976055 5:0.361909 6:1.84793 7:1.55771 8:-0.946564 9:0.205275 10:1.43472 11:0.376952 12:0.586275 13:1.4053 14:0.749032 15:-0.832435 16:0.268441 17:-0.71337 
0.05807321483515505 1:-1.3131 2:-0.411412 3:2.6466 4:-0.512255 5:0.908646 6:1.5889 7:1.57304 8:-0.543128 9:-1.49812 10:-0.00837985 11:0.117994 12:1.92531 13:0.861611 14:0.542872 15:-0.621144 16:0.611767 17:0.485873 
1 1:-1.56661 2:-1.05186 3:1.11232 4:-0.951144 5:-0.146012 6:4.25226 7:1.20315 8:-0.648014 9:-1.23 10:-2.43413 11:0.392528 12:1.05501 13:-0.805806 14:0.524442 15:-1.65595 16:-0.992128 17:-0.54869 
0.1968112438978786 1:-1.32254 2:-0.938365 3:1.1886 4:-1.40589 5:0.244887 6:2.28381 7:0.694077 8:-0.720681 9:-0.294228 10:0.773125 11:1.02949 12:1.89779 13:1.38791 14:0.192182 15:0.205907 16:1.43586 17:1.50214 
0.3335488855531003 1:-2.01701 2:-1.58519 3:2.46659 4:-1.09906 5:-0.261291 6:-0.104115 7:-0.209262 8:-0.366873 9:-0.688272 10:0.193017 11:0.607982 12:2.11957 13:0.412613 14:0.459199 15:-1.71404 16:0.347931 17:0.269726 
1 1:0.91896 2:-0.169354 3:2.82512 4:-0.15337 5:-0.799031 6:0.317713 7:0.0771056 8:-2.48164 9:-0.662389 10:-0.931342 11:0.197146 12:0.0965043 13:-0.0299631 14:0.438778 15:-1.0062 16:0.0923825 17:0.144053 
-0.2003924737399971 1:-1.44766 2:-0.736056 3:2.98306 4:-1.15414 5:0.734402 6:1.19361 7:0.155008 8:-1.20726 9:0.1932 10:1.27048 11:-0.259789 12:1.66335 13:0.325588 14:1.11003 15:-0.770266 16:1.52402 17:-0.200313 
1 1:-0.170571 2:-1.22246 3:0.688837 4:-1.09659 5:0.336753 6:1.94409 7:0.634763 8:-0.767557 9:0.27794 10:-0.232737 11:0.0923753 12:1.49597 13:0.368746 14:0.798475 15:-0.864591 16:0.677186 17:-0.393367 
1 1:-2.11153 2:-0.681901 3:1.27834 4:-1.81368 5:-1.05064 6:0.421209 7:0.264499 8:-0.80763 9:-0.880189 10:-1.25167 11:0.36668 12:1.14981 13:0.177915 14:0.638883 15:-1.33809 16:0.191111 17:-0.849074 
1 1:-0.510663 2:-0.840935 3:0.945359 4:0.118832 5:0.551642 6:3.2964 7:1.27212 8:0.138 9:-0.494673 10:0.0619441 11:0.596225 12:1.38813 13:-0.0627508 14:-0.0867408 15:0.596814 16:0.127436 17:1.38508 
0.6854315223223341 1:-2.34258 2:-1.01476 3:2.39123 4:-1.45554 5:-0.40121 6:1.79816 7:1.3778 8:-0.159849 9:0.0590615 10:-1.60873 11:0.442607 12:0.55678 13:0.513634 14:0.520351 15:0.0999959 16:0.833778 17:2.24957 
0.274800031336818 1:0.55476 2:0.705198 3:3.58931 4:-0.35966 5:-0.0483275 6:1.42131 7:0.207006 8:-1.26993 9:-0.534136 10:-0.96796 11:0.193055 12:1.93203 13:-0.552213 14:0.968356 15:0.126507 16:1.39964 17:0.340547 
0.05576151784983176 1:0.244148 2:-0.701809 3:2.18919 4:-1.2326 5:0.210898 6:2.50904 7:0.989357 8:-0.821921 9:0.295599 10:-0.544736 11:0.1449 12:1.48551 13:-1.16584 14:0.949568 15:-0.382107 16:1.92151 17:1.15181 
-0.1206773676694099 1:-0.736835 2:-1.20502 3:2.62234 4:-1.06891 5:0.269946 6:1.72148 7:0.164845 8:-0.719199 9:-0.363164 10:-0.894532 11:0.780696 12:2.1856 13:1.05492 14:1.19561 15:-1.65567 16:0.910087 17:0.987024 
1 1:-0.781549 2:-0.680208 3:1.11148 4:-0.835811 5:-0.0594789 6:0.0453976 7:-0.040327 8:0.77852 9:0.178319 10:-0.180536 11:0.264901 12:2.16801 13:0.224522 14:0.73983 15:-1.0431 16:0.72802 17:1.06345 
0.1583697664099092 1:-1.2036 2:-0.401033 3:-1.74087 4:-1.21986 5:-0.848634 6:0.774653 7:-0.227016 8:-1.89972 9:-0.245228 10:-1.26054 11:-0.15377 12:-1.42527 13:-0.512263 14:-0.303292 15:-0.78569 16:-0.0495469 17:-0.252079 
-0.3070942452636078 1:-1.1768 2:-0.551419 3:-0.113593 4:-0.990774 5:0.117055 6:0.478542 7:0.103579 8:-1.19778 9:-0.0520806 10:-0.282859 11:0.171988 12:0.298201 13:0.313526 14:-0.106054 15:-1.44773 16:-0.22466 17:0.231502 
-0.005569914285663657 1:-2.13021 2:-0.479327 3:-1.94307 4:-1.6199 5:-0.205901 6:-0.378313 7:-0.399486 8:-0.914361 9:0.525102 10:0.540907 11:0.231764 12:-0.869635 13:1.21804 14:0.160404 15:-0.510839 16:0.324651 17:-1.17524 
-0.0377969254989076 1:-2.46378 2:-1.02631 3:-1.12431 4:-0.425079 5:-0.878174 6:0.2627 7:-0.225586 8:-1.24079 9:-0.345425 10:-0.762222 11:-0.101234 12:-1.08246 13:-0.408639 14:0.380677 15:-0.588888 16:0.662796 17:-0.277853 
-1 1:-0.403915 2:-0.357038 3:0.0766632 4:-0.977727 5:-0.956248 6:0.454506 7:-0.288836 8:-1.51524 9:-0.465053 10:-0.953289 11:0.0669294 12:0.0184331 13:0.0584113 14:0.300273 15:-1.0586 16:-0.0640454 17:-0.35526 
-0.1755527838242555 1:-0.841306 2:-1.21944 3:0.077701 4:-0.362028 5:0.0119706 6:-0.210078 7:0.43884 8:0.16172 9:0.253669 10:0.795883 11:0.144026 12:1.3643 13:0.701391 14:-0.130515 15:1.33321 16:0.0951676 17:0.0836348 
-0.1450729882873881 1:-0.333683 2:-0.496044 3:-0.601958 4:-0.844553 5:-0.0459089 6:1.90244 7:0.555105 8:-0.686766 9:-0.0477715 10:-0.232386 11:0.345352 12:-0.268586 13:0.742045 14:-0.00682913 15:-0.0610666 16:-0.61209 17:0.00502266 
-0.08069794818021962 1:1.56434 2:1.51167 3:0.274386 4:-0.182275 5:-0.0969527 6:0.151768 7:-0.194229 8:-1.07826 9:-0.0222985 10:-0.115652 11:0.330814 12:0.595481 13:-0.445131 14:0.646591 15:0.366531 16:0.885681 17:-0.378118 
-0.03037823855926656 1:-2.85409 2:-0.948921 3:-1.67689 4:-1.35171 5:-1.45103 6:-1.22728 7:-0.649821 8:-2.21817 9:-0.90717 10:-1.66141 11:0.0994669 12:-1.57554 13:-0.919563 14:-0.25356 15:-1.822 16:-0.133203 17:-0.703498 
-0.05250625614351357 1:-0.371068 2:0.0388718 3:-0.312157 4:-0.145744 5:-0.994892 6:0.838985 7:-0.507995 8:-1.6713 9:-0.650802 10:-1.04458 11:0.173525 12:0.0884077 13:-0.0340948 14:0.0293105 15:0.137848 16:0.190872 17:-0.32525 
-0.2316373549075644 1:-1.33343 2:-0.0374241 3:-0.664352 4:-1.05264 5:-0.0719556 6:-0.0466513 7:-0.313578 8:-0.372213 9:0.378538 10:-0.265689 11:-0.1028 12:0.412595 13:0.576617 14:0.321739 15:-0.631094 16:0.781033 17:0.786661 
0.03178620583622054 1:-0.422637 2:-0.191785 3:-1.17198 4:-0.917214 5:-0.970528 6:0.186312 7:-0.715236 8:-1.69534 9:-0.238757 10:-1.42358 11:-0.102155 12:-0.189994 13:-0.590335 14:0.102035 15:-0.835769 16:-0.218535 17:-0.412926 
-0.02620522238050108 1:-1.71896 2:-1.92015 3:0.0710856 4:-0.806681 5:2.42441 6:2.71727 7:0.506994 8:1.21166 9:2.38333 10:1.56197 11:-0.577617 12:-1.04353 13:2.33777 14:-0.48196 15:2.48395 16:1.00876 17:0.237407 
-0.07404710921782716 1:-2.86003 2:-1.99413 3:-1.88919 4:-1.58319 5:1.68729 6:3.73351 7:0.807883 8:0.413986 9:3.29108 10:1.97228 11:-0.231278 12:-1.62434 13:0.322219 14:-0.197281 15:1.38025 16:-0.174336 17:-0.934525 
-0.00762837152577072 1:-2.00092 2:-1.06501 3:-1.76141 4:-1.08101 5:1.37402 6:3.34477 7:0.459145 8:0.503188 9:2.86341 10:-0.389239 11:-0.294023 12:-2.75604 13:-0.806626 14:-0.845615 15:3.16431 16:0.198914 17:0.279855 
-0.09055865642585309 1:-2.03035 2:-0.570216 3:1.24689 4:-0.818985 5:1.56864 6:1.93542 7:-0.445569 8:1.10294 9:2.44217 10:0.448216 11:-0.52367 12:-0.409551 13:1.1402 14:-0.23516 15:2.33763 16:0.35512 17:-0.377629 
-0.05294623105625143 1:1.52569 2:1.11871 3:-1.05612 4:0.453756 5:1.82903 6:1.87604 7:-0.152624 8:2.41839 9:3.97251 10:1.5169 11:-0.279879 12:-0.547718 13:-0.21366 14:-0.300709 15:3.17431 16:1.69973 17:0.301459 
-0.02878748664777451 1:-2.00355 2:-0.72932 3:-2.39286 4:-1.06749 5:2.33449 6:2.76224 7:0.199708 8:2.00425 9:2.47962 10:1.89621 11:-0.550619 12:0.444048 13:-0.37882 14:0.22691 15:0.199231 16:0.482379 17:-0.409498 
-0.02803351246772273 1:-2.31791 2:-0.937601 3:-1.2673 4:-1.12552 5:0.575945 6:0.357753 7:0.548172 8:-0.164266 9:1.8693 10:1.23127 11:0.241702 12:-0.230926 13:0.54772 14:0.11727 15:1.00785 16:0.18329 17:-0.609468 
-0.1083075757018825 1:0.75156 2:0.446601 3:-0.439015 4:-0.0415398 5:2.0651 6:1.60172 7:0.615819 8:2.45038 9:2.96639 10:3.09115 11:0.24154 12:0.181283 13:1.10807 14:0.752913 15:0.589977 16:1.02227 17:0.568581 
-0.08081531113625648 1:-0.825616 2:-0.932214 3:0.295779 4:-1.49652 5:1.06568 6:2.41098 7:0.970545 8:0.212065 9:1.89127 10:0.84683 11:-0.0383274 12:-0.57631 13:0.953108 14:-0.278265 15:1.39784 16:0.250538 17:0.197186 
-0.03012666776411336 1:-2.33585 2:-1.82633 3:-2.01079 4:-1.73582 5:2.91986 6:4.84378 7:0.549789 8:1.96356 9:3.37389 10:1.84699 11:-0.159528 12:-1.12925 13:0.34522 14:-0.526589 15:2.86834 16:0.0188986 17:-0.0892125 
-0.01855883001768278 1:-0.789868 2:-0.888042 3:0.546661 4:-1.81611 5:2.20611 6:3.24194 7:0.94038 8:1.28807 9:3.29846 10:0.39385 11:-0.05164 12:-1.41149 13:-1.38365 14:-0.385993 15:2.73461 16:1.75432 17:1.0551 
-0.06646316022177687 1:0.16382 2:0.633632 3:0.530411 4:-0.424159 5:1.88994 6:3.29643 7:0.719359 8:2.04548 9:3.41062 10:0.375428 11:-0.376409 12:-1.49654 13:-0.767054 14:-0.867537 15:4.0474 16:0.779967 17:0.975516 
-0.04835090309151895 1:1.43776 2:-0.601177 3:0.937391 4:0.649045 5:-1.85719 6:-2.2802 7:-1.862 8:-1.55261 9:-1.08113 10:-1.19435 11:1.74588 12:2.47618 13:0.93416 14:0.426308 15:-0.596484 16:0.618662 17:0.792087 
0.03369698923337536 1:2.00318 2:1.03983 3:0.416141 4:-0.511177 5:-0.939648 6:-1.13681 7:0.973589 8:0.326025 9:-0.175635 10:-0.741515 11:1.61224 12:1.83651 13:1.53805 14:-0.156848 15:-0.334093 16:0.125686 17:0.576112 
-0.127267441675682 1:0.0397222 2:0.527193 3:1.53909 4:-0.165489 5:0.266993 6:1.82219 7:0.535696 8:1.18525 9:-0.170031 10:-0.767532 11:2.38581 12:3.36718 13:1.39657 14:-0.089915 15:-1.16248 16:-0.253489 17:0.732572 
-0.2137492818571587 1:0.328466 2:-0.599858 3:0.600082 4:-0.67585 5:-0.792048 6:1.2461 7:0.438661 8:-1.5868 9:-1.27258 10:-2.24879 11:1.60805 12:0.686012 13:-0.253922 14:-0.161731 15:-0.797026 16:-1.28566 17:-0.599971 
-0.185018850962776 1:2.96943 2:-0.263407 3:1.17767 4:-0.0646633 5:-1.00878 6:0.0518755 7:-0.243555 8:-1.71857 9:-0.511207 10:-2.20752 11:0.517543 12:0.948168 13:-0.722852 14:0.355911 15:-0.882999 16:-0.0129746 17:0.348579 
-1 1:-1.17505 2:-1.03512 3:1.94896 4:-0.927693 5:-0.541877 6:-0.617443 7:0.541758 8:-0.164776 9:-0.056569 10:-0.1532 11:1.66921 12:1.34168 13:0.975039 14:-0.228812 15:-0.637885 16:0.288875 17:0.352612 
0.6169597085706698 1:-0.0616689 2:0.00151151 3:-0.313937 4:-0.346929 5:-1.16952 6:-0.150591 7:-0.166264 8:-0.344936 9:-0.481698 10:-1.10802 11:1.75955 12:0.917943 13:-0.190967 14:-0.168124 15:-0.174047 16:-0.484003 17:-0.599991 
-0.5944041276944462 1:1.22352 2:-0.635239 3:2.18874 4:-0.410153 5:-0.755144 6:-0.258728 7:0.296756 8:-0.712642 9:-0.776579 10:-1.01714 11:1.08281 12:0.883472 13:-0.300766 14:0.372995 15:-0.000976797 16:-0.106775 17:0.00296737 
-1 1:-0.495083 2:-0.622191 3:0.523921 4:-1.08368 5:0.149916 6:0.99743 7:0.353212 8:-0.163214 9:-0.584441 10:-0.231462 11:1.60183 12:2.16522 13:0.872343 14:0.182685 15:-1.48319 16:0.0888926 17:1.25115 
-0.07493760313518233 1:3.53654 2:1.50261 3:0.890525 4:1.42687 5:-1.82291 6:-3.01435 7:-1.00348 8:-1.75564 9:-0.991857 10:-1.36962 11:1.36114 12:0.850706 13:0.291529 14:-0.0428068 15:-1.72405 16:-0.669411 17:-0.180872 
-0.07753162677076778 1:4.09194 2:2.26176 3:1.36103 4:2.85992 5:-1.35212 6:-0.0398966 7:-0.245774 8:-0.507208 9:-0.0939103 10:-1.27958 11:-0.467562 12:0.979148 13:-0.97066 14:-1.15138 15:2.81205 16:1.68603 17:0.497847 
-0.07293835743999388 1:-0.0418724 2:1.19554 3:-1.17945 4:3.08429 5:-0.992117 6:0.684965 7:-0.562413 8:-1.22673 9:-0.167634 10:-1.80912 11:-0.24245 12:-2.07406 13:-1.68521 14:-0.89347 15:2.70909 16:1.90342 17:-0.546315 
-0.01436288530905756 1:1.68433 2:1.76992 3:0.33833 4:2.22779 5:-0.193522 6:0.955584 7:-0.199847 8:-0.272118 9:0.681694 10:-1.32936 11:0.703545 12:-0.173105 13:-0.526083 14:-1.42314 15:3.85337 16:2.70902 17:-0.0747409 
-0.06015747189202603 1:3.20756 2:2.47072 3:-0.264365 4:4.06439 5:-0.814675 6:-1.95911 7:-0.554945 8:-0.407532 9:0.247626 10:-1.40446 11:-0.381905 12:-0.697411 13:-0.65356 14:-0.959087 15:3.21325 16:1.33529 17:0.0287076 
-0.1046757801527616 1:1.0486 2:1.10487 3:0.0792193 4:0.634176 5:-0.924764 6:-0.0442629 7:-0.401201 8:-0.957551 9:-0.203138 10:-1.75536 11:0.304731 12:0.748686 13:0.48426 14:-0.57819 15:3.07312 16:3.74293 17:0.35933 
-0.004230777728889936 1:2.48786 2:2.74774 3:-1.01227 4:4.08078 5:-1.32297 6:-0.820378 7:-1.46339 8:-0.564689 9:-0.0785919 10:-1.45473 11:0.232251 12:0.140281 13:-0.38914 14:-0.770055 15:2.68139 16:2.36415 17:-0.0274894 
-0.06092157877719261 1:-3.51986 2:-1.66777 3:1.73617 4:-2.17866 5:1.58099 6:3.90309 7:4.22669 8:1.11805 9:0.136361 10:0.498318 11:0.565587 12:1.27062 13:1.32265 14:0.179374 15:0.985527 16:0.892334 17:0.905266 
-0.5651521285528781 1:-2.411 2:-1.20966 3:0.617454 4:-1.5593 5:0.793175 6:2.53256 7:2.32448 8:0.665842 9:0.0841033 10:0.617012 11:0.172303 12:1.24802 13:0.303054 14:-0.240904 15:0.193505 16:0.0749141 17:-0.31848 
-0.5410684254049666 1:-1.79153 2:-1.19056 3:0.361038 4:-2.05396 5:0.557974 6:-0.144079 7:2.35016 8:0.65187 9:-0.389236 10:0.60483 11:0.387657 12:1.57376 13:0.19617 14:0.574157 15:-1.03981 16:0.676333 17:0.0981355 
-0.3704430134698122 1:-0.565712 2:-0.436746 3:2.74902 4:-0.558495 5:0.983632 6:3.04858 7:2.3532 8:0.646778 9:-0.352844 10:-1.41762 11:0.770093 12:1.89053 13:-0.869526 14:0.484851 15:-0.684734 16:-0.576112 17:0.221794 
-1 1:-1.56295 2:-0.97296 3:2.06828 4:-0.577589 5:-0.100086 6:1.86954 7:1.97427 8:0.351476 9:-0.611348 10:-1.65623 11:0.539642 12:0.867211 13:-0.749256 14:-0.206143 15:-0.789121 16:-0.263455 17:0.330272 
-0.230419636392519 1:0.233045 2:-0.0733524 3:3.21207 4:-1.26542 5:1.3349 6:2.24107 7:2.97077 8:0.346545 9:0.433258 10:-0.344061 11:0.636507 12:1.50086 13:0.67894 14:0.599744 15:-0.123854 16:-0.456148 17:-0.0623561 
-0.4536238332282061 1:-1.31521 2:0.0028106 3:-0.122524 4:-1.58003 5:0.175943 6:2.8932 7:1.97675 8:0.433881 9:-0.528499 10:-1.12969 11:0.279656 12:0.757762 13:-0.875077 14:0.2025 15:-0.542778 16:0.510794 17:-0.000150474 
-0.03740225089020669 1:-3.44541 2:-0.783716 3:-0.398751 4:-1.43021 5:0.489456 6:3.67071 7:2.45093 8:0.529467 9:0.155212 10:-0.10949 11:0.229105 12:-0.560366 13:0.0591767 14:0.236513 15:0.792032 16:-0.103321 17:-0.709718 
-0.2962546739059188 1:-2.23712 2:-1.10617 3:-0.183972 4:-1.93508 5:-0.401757 6:1.51182 7:1.88739 8:-0.998174 9:-0.486185 10:-1.63709 11:-0.485437 12:-0.864096 13:-0.776937 14:0.418837 15:-0.582153 16:0.088756 17:-1.04627 
-0.002990655782404563 1:-1.12272 2:-0.518959 3:0.886121 4:-1.6594 5:1.27339 6:1.86961 7:3.30841 8:1.41012 9:0.0755626 10:0.832442 11:0.249254 12:2.81062 13:0.691124 14:0.0935609 15:1.75267 16:0.47367 17:0.374258 
0.03241156695664252 1:-0.366563 2:-0.26492 3:0.357773 4:-2.00026 5:1.99896 6:3.39225 7:3.68835 8:1.06671 9:0.0119781 10:0.461913 11:0.222137 12:1.72334 13:0.25715 14:0.647708 15:-0.515843 16:-1.17205 17:0.186957 
-0.09783020148445143 1:-0.552818 2:0.116931 3:1.95992 4:-1.12416 5:2.4496 6:3.11717 7:3.34905 8:0.871239 9:0.480602 10:2.00133 11:-0.37931 12:1.33025 13:-0.394085 14:0.887797 15:-0.356527 16:1.23252 17:-0.203855 
-0.5281370014880569 1:-1.43309 2:-0.71866 3:0.839883 4:-1.16183 5:1.34708 6:2.83753 7:2.78332 8:0.672942 9:0.0136201 10:0.791464 11:-0.256657 12:1.47887 13:0.246216 14:0.475478 15:-0.745753 16:-0.343513 17:0.368021 
-0.2375708625983474 1:-1.73609 2:-0.956802 3:2.68574 4:-1.58184 5:1.17282 6:4.45258 7:2.45113 8:0.910114 9:-0.0839668 10:-0.768337 11:0.315186 12:1.31147 13:-1.04368 14:0.179279 15:-0.92834 16:0.223785 17:1.2721 
0.2442993669204442 1:-1.15097 2:-0.560298 3:1.14041 4:-1.16125 5:0.520313 6:2.07852 7:2.83118 8:1.24674 9:-0.172919 10:-0.817887 11:0.566951 12:-0.0293702 13:0.393872 14:-0.448384 15:-0.277071 16:0.181484 17:0.329466 
0.07000976208683823 1:-1.97718 2:-0.660564 3:0.514067 4:-2.16748 5:1.53646 6:2.60154 7:3.49145 8:0.439664 9:-0.0611752 10:0.195639 11:-0.336717 12:0.709068 13:-0.254133 14:0.349545 15:-1.42094 16:-0.645793 17:-0.591344 
0.1616986703608084 1:0.107541 2:-0.267589 3:0.864236 4:-1.46781 5:1.25785 6:1.87118 7:3.34633 8:0.252042 9:-0.150079 10:-0.131832 11:-0.0185906 12:1.17474 13:-0.723065 14:-0.0140219 15:-0.167367 16:-0.365129 17:0.572334 
-0.3492680380963281 1:-2.37986 2:-0.251193 3:2.7842 4:-0.780677 5:1.74345 6:3.83751 7:2.94921 8:0.527986 9:0.0411818 10:0.470688 11:0.00357574 12:0.961052 13:0.779525 14:0.318591 15:-0.510416 16:-0.681979 17:0.892878 
0.1989446949538962 1:-1.50586 2:0.445418 3:1.62769 4:-1.0927 5:1.6583 6:3.12561 7:3.6126 8:1.15243 9:0.346148 10:-1.04537 11:0.574079 12:1.0369 13:-0.311586 14:-0.450807 15:0.296453 16:-0.623454 17:0.986008 
-0.06928620945610514 1:0.890267 2:1.21572 3:-2.40049 4:3.3697 5:-1.17825 6:-0.943552 7:-1.47446 8:-2.29103 9:-0.0958596 10:-0.636118 11:0.354719 12:-1.23726 13:1.78515 14:-0.385471 15:0.371501 16:0.122045 17:-1.38428 
-0.0277340661679036 1:1.91158 2:0.991299 3:-0.401124 4:2.58346 5:-0.282403 6:0.754394 7:-0.281488 8:-0.469124 9:0.134705 10:-0.66594 11:1.20151 12:0.228244 13:2.97654 14:-0.553588 15:1.3686 16:0.633933 17:-0.429775 
-0.0702121476417379 1:3.4221 2:0.519236 3:0.911463 4:1.33466 5:-0.100279 6:0.443656 7:-1.49252 8:-0.812453 9:-0.134518 10:0.728695 11:1.44814 12:-0.584749 13:3.10392 14:-0.426009 15:-0.119983 16:0.154457 17:0.0432577 
