svm_type epsilon_svr
kernel_type rbf
gamma 0.0588235
nr_class 2
total_sv 68
rho -0.224879
SV
0.3455011302918841 1:-3.51986 2:-1.66777 3:1.73617 4:-2.17866 5:1.58099 6:3.90309 7:4.22669 8:1.11805 9:0.136361 10:0.498318 11:0.565587 12:1.27062 13:1.32265 14:0.179374 15:0.985527 16:0.892334 17:0.905266 
0.9812069124716074 1:-1.79153 2:-1.19056 3:0.361038 4:-2.05396 5:0.557974 6:-0.144079 7:2.35016 8:0.65187 9:-0.389236 10:0.60483 11:0.387657 12:1.57376 13:0.19617 14:0.574157 15:-1.03981 16:0.676333 17:0.0981355 
0.3478236399933156 1:-0.565712 2:-0.436746 3:2.74902 4:-0.558495 5:0.983632 6:3.04858 7:2.3532 8:0.646778 9:-0.352844 10:-1.41762 11:0.770093 12:1.89053 13:-0.869526 14:0.484851 15:-0.684734 16:-0.576112 17:0.221794 
0.97167534697005 1:-1.56295 2:-0.97296 3:2.06828 4:-0.577589 5:-0.100086 6:1.86954 7:1.97427 8:0.351476 9:-0.611348 10:-1.65623 11:0.539642 12:0.867211 13:-0.749256 14:-0.206143 15:-0.789121 16:-0.263455 17:0.330272 
0.3693531692448104 1:0.233045 2:-0.0733524 3:3.21207 4:-1.26542 5:1.3349 6:2.24107 7:2.97077 8:0.346545 9:0.433258 10:-0.344061 11:0.636507 12:1.50086 13:0.67894 14:0.599744 15:-0.123854 16:-0.456148 17:-0.0623561 
0.4210123112215561 1:-1.31521 2:0.0028106 3:-0.122524 4:-1.58003 5:0.175943 6:2.8932 7:1.97675 8:0.433881 9:-0.528499 10:-1.12969 11:0.279656 12:0.757762 13:-0.875077 14:0.2025 15:-0.542778 16:0.510794 17:-0.000150474 
0.8524279763061833 1:-0.381642 2:-0.363931 3:1.91512 4:-0.271384 5:0.144381 6:0.75192 7:2.0162 8:0.607699 9:-0.818304 10:-0.0386363 11:0.150067 12:1.0875 13:-0.472463 14:-0.342767 15:-0.475026 16:-1.26117 17:2.09048 
0.4716925633533578 1:-3.44541 2:-0.783716 3:-0.398751 4:-1.43021 5:0.489456 6:3.67071 7:2.45093 8:0.529467 9:0.155212 10:-0.10949 11:0.229105 12:-0.560366 13:0.0591767 14:0.236513 15:0.792032 16:-0.103321 17:-0.709718 
0.8291025888565834 1:-2.23712 2:-1.10617 3:-0.183972 4:-1.93508 5:-0.401757 6:1.51182 7:1.88739 8:-0.998174 9:-0.486185 10:-1.63709 11:-0.485437 12:-0.864096 13:-0.776937 14:0.418837 15:-0.582153 16:0.088756 17:-1.04627 
0.2422642541440571 1:-1.12272 2:-0.518959 3:0.886121 4:-1.6594 5:1.27339 6:1.86961 7:3.30841 8:1.41012 9:0.0755626 10:0.832442 11:0.249254 12:2.81062 13:0.691124 14:0.0935609 15:1.75267 16:0.47367 17:0.374258 
0.4028301169308454 1:-0.552818 2:0.116931 3:1.95992 4:-1.12416 5:2.4496 6:3.11717 7:3.34905 8:0.871239 9:0.480602 10:2.00133 11:-0.37931 12:1.33025 13:-0.394085 14:0.887797 15:-0.356527 16:1.23252 17:-0.203855 
0.3257255655783564 1:-1.73609 2:-0.956802 3:2.68574 4:-1.58184 5:1.17282 6:4.45258 7:2.45113 8:0.910114 9:-0.0839668 10:-0.768337 11:0.315186 12:1.31147 13:-1.04368 14:0.179279 15:-0.92834 16:0.223785 17:1.2721 
-0.07285908209102472 1:-1.15097 2:-0.560298 3:1.14041 4:-1.16125 5:0.520313 6:2.07852 7:2.83118 8:1.24674 9:-0.172919 10:-0.817887 11:0.566951 12:-0.0293702 13:0.393872 14:-0.448384 15:-0.277071 16:0.181484 17:0.329466 
-0.1151095259458224 1:-1.97718 2:-0.660564 3:0.514067 4:-2.16748 5:1.53646 6:2.60154 7:3.49145 8:0.439664 9:-0.0611752 10:0.195639 11:-0.336717 12:0.709068 13:-0.254133 14:0.349545 15:-1.42094 16:-0.645793 17:-0.591344 
-0.3171306144868002 1:0.107541 2:-0.267589 3:0.864236 4:-1.46781 5:1.25785 6:1.87118 7:3.34633 8:0.252042 9:-0.150079 10:-0.131832 11:-0.0185906 12:1.17474 13:-0.723065 14:-0.0140219 15:-0.167367 16:-0.365129 17:0.572334 
0.4459743631738701 1:-2.37986 2:-0.251193 3:2.7842 4:-0.780677 5:1.74345 6:3.83751 7:2.94921 8:0.527986 9:0.0411818 10:0.470688 11:0.00357574 12:0.961052 13:0.779525 14:0.318591 15:-0.510416 16:-0.681979 17:0.892878 
-0.2145385230882156 1:-1.50586 2:0.445418 3:1.62769 4:-1.0927 5:1.6583 6:3.12561 7:3.6126 8:1.15243 9:0.346148 10:-1.04537 11:0.574079 12:1.0369 13:-0.311586 14:-0.450807 15:0.296453 16:-0.623454 17:0.986008 
0.4545721734601948 1:-0.0994396 2:0.124783 3:0.426512 4:-1.22723 5:1.78424 6:3.02578 7:2.90382 8:1.36341 9:0.183661 10:0.6483 11:0.313784 12:1.56615 13:1.08499 14:0.192471 15:0.327911 16:0.150241 17:0.729865 
0.09182380667249181 1:-2.07017 2:-1.02049 3:0.845935 4:-0.981311 5:0.317157 6:0.622686 7:1.94479 8:1.91838 9:-0.0071989 10:-0.036904 11:1.06634 12:1.37206 13:-0.23458 14:0.308977 15:0.252741 16:-0.471965 17:0.0425187 
-0.2438529074057733 1:-1.2036 2:-0.401033 3:-1.74087 4:-1.21986 5:-0.848634 6:0.774653 7:-0.227016 8:-1.89972 9:-0.245228 10:-1.26054 11:-0.15377 12:-1.42527 13:-0.512263 14:-0.303292 15:-0.78569 16:-0.0495469 17:-0.252079 
-0.1939806253944615 1:-1.67571 2:-0.647238 3:0.211664 4:-0.881551 5:-0.680206 6:-0.595863 7:-0.034676 8:-0.693781 9:-0.664559 10:-0.124285 11:-0.0785119 12:-0.136635 13:-0.161816 14:-0.0454356 15:-1.3308 16:0.262478 17:-0.0819968 
-0.03096821294043054 1:-2.46378 2:-1.02631 3:-1.12431 4:-0.425079 5:-0.878174 6:0.2627 7:-0.225586 8:-1.24079 9:-0.345425 10:-0.762222 11:-0.101234 12:-1.08246 13:-0.408639 14:0.380677 15:-0.588888 16:0.662796 17:-0.277853 
-0.08367108375695773 1:-0.841306 2:-1.21944 3:0.077701 4:-0.362028 5:0.0119706 6:-0.210078 7:0.43884 8:0.16172 9:0.253669 10:0.795883 11:0.144026 12:1.3643 13:0.701391 14:-0.130515 15:1.33321 16:0.0951676 17:0.0836348 
-0.0105669243206448 1:-0.333683 2:-0.496044 3:-0.601958 4:-0.844553 5:-0.0459089 6:1.90244 7:0.555105 8:-0.686766 9:-0.0477715 10:-0.232386 11:0.345352 12:-0.268586 13:0.742045 14:-0.00682913 15:-0.0610666 16:-0.61209 17:0.00502266 
-0.03687437914396477 1:-2.85409 2:-0.948921 3:-1.67689 4:-1.35171 5:-1.45103 6:-1.22728 7:-0.649821 8:-2.21817 9:-0.90717 10:-1.66141 11:0.0994669 12:-1.57554 13:-0.919563 14:-0.25356 15:-1.822 16:-0.133203 17:-0.703498 
0.156744435350527 1:0.676633 2:0.232222 3:-0.156367 4:-0.397748 5:-0.601409 6:0.483698 7:-0.611413 8:-1.62566 9:-0.593563 10:-0.80011 11:0.0477409 12:0.628177 13:0.632398 14:0.0382209 15:-0.397665 16:0.171813 17:-0.292181 
0.07365550751290725 1:-0.371068 2:0.0388718 3:-0.312157 4:-0.145744 5:-0.994892 6:0.838985 7:-0.507995 8:-1.6713 9:-0.650802 10:-1.04458 11:0.173525 12:0.0884077 13:-0.0340948 14:0.0293105 15:0.137848 16:0.190872 17:-0.32525 
-0.1876308862048212 1:-0.174973 2:0.736493 3:0.0258838 4:-0.629576 5:-1.11481 6:0.333286 7:0.477534 8:-0.734463 9:-0.604386 10:-0.90772 11:0.43806 12:-0.349058 13:-0.385651 14:0.075585 15:-0.162215 16:0.271607 17:0.244063 
-0.009922266595562135 1:-2.86003 2:-1.99413 3:-1.88919 4:-1.58319 5:1.68729 6:3.73351 7:0.807883 8:0.413986 9:3.29108 10:1.97228 11:-0.231278 12:-1.62434 13:0.322219 14:-0.197281 15:1.38025 16:-0.174336 17:-0.934525 
-0.08662282324534613 1:-2.64642 2:-1.48893 3:-0.870523 4:-1.24331 5:1.68925 6:3.12556 7:1.62975 8:1.50958 9:2.91436 10:0.343776 11:-0.131049 12:-1.70062 13:0.595278 14:-0.997712 15:2.8295 16:0.697737 17:-0.362395 
-0.028500393588863 1:-2.00092 2:-1.06501 3:-1.76141 4:-1.08101 5:1.37402 6:3.34477 7:0.459145 8:0.503188 9:2.86341 10:-0.389239 11:-0.294023 12:-2.75604 13:-0.806626 14:-0.845615 15:3.16431 16:0.198914 17:0.279855 
-0.05691834234745249 1:-1.90843 2:-0.555616 3:0.345464 4:-0.557352 5:1.72234 6:1.24047 7:0.951183 8:1.59602 9:2.4806 10:0.615242 11:-0.517371 12:-0.91808 13:0.00354146 14:-1.03785 15:1.8602 16:0.36786 17:0.16598 
-0.009014886568567956 1:1.52569 2:1.11871 3:-1.05612 4:0.453756 5:1.82903 6:1.87604 7:-0.152624 8:2.41839 9:3.97251 10:1.5169 11:-0.279879 12:-0.547718 13:-0.21366 14:-0.300709 15:3.17431 16:1.69973 17:0.301459 
-0.07124326783912287 1:-2.00355 2:-0.72932 3:-2.39286 4:-1.06749 5:2.33449 6:2.76224 7:0.199708 8:2.00425 9:2.47962 10:1.89621 11:-0.550619 12:0.444048 13:-0.37882 14:0.22691 15:0.199231 16:0.482379 17:-0.409498 
-0.02672425041673728 1:-2.29719 2:-1.07092 3:-0.571772 4:-1.20194 5:1.03128 6:1.55142 7:1.0931 8:1.9183 9:2.22902 10:0.347647 11:0.152011 12:-1.05945 13:-0.306966 14:-0.145367 15:3.53182 16:1.49686 17:0.52964 
-0.01561664919011788 1:0.75156 2:0.446601 3:-0.439015 4:-0.0415398 5:2.0651 6:1.60172 7:0.615819 8:2.45038 9:2.96639 10:3.09115 11:0.24154 12:0.181283 13:1.10807 14:0.752913 15:0.589977 16:1.02227 17:0.568581 
-0.1569525507815645 1:-0.825616 2:-0.932214 3:0.295779 4:-1.49652 5:1.06568 6:2.41098 7:0.970545 8:0.212065 9:1.89127 10:0.84683 11:-0.0383274 12:-0.57631 13:0.953108 14:-0.278265 15:1.39784 16:0.250538 17:0.197186 
-0.004169928062756105 1:-0.789868 2:-0.888042 3:0.546661 4:-1.81611 5:2.20611 6:3.24194 7:0.94038 8:1.28807 9:3.29846 10:0.39385 11:-0.05164 12:-1.41149 13:-1.38365 14:-0.385993 15:2.73461 16:1.75432 17:1.0551 
-0.002539059078452608 1:0.139479 2:-0.392909 3:0.258967 4:-1.69249 5:3.40303 6:3.46585 7:1.21918 8:2.33797 9:3.23895 10:2.34058 11:-0.0629063 12:-0.0844586 13:1.51399 14:-0.500749 15:2.21719 16:0.738568 17:-0.382696 
-0.2312549738449982 1:-0.769894 2:0.173455 3:-0.885528 4:-1.47664 5:2.41468 6:2.66115 7:2.10281 8:2.04202 9:2.67315 10:2.30597 11:0.257533 12:-0.29487 13:1.17447 14:-0.0881824 15:1.8198 16:0.560111 17:-0.165806 
-0.0649752501996235 1:1.55696 2:-0.192515 3:2.42744 4:-0.292639 5:-0.134019 6:1.17765 7:0.20026 8:0.755804 9:-0.502867 10:-0.956625 11:2.52348 12:1.65216 13:1.12936 14:-0.0876638 15:0.228124 16:-0.537235 17:0.642795 
-0.07272752682030291 1:2.00318 2:1.03983 3:0.416141 4:-0.511177 5:-0.939648 6:-1.13681 7:0.973589 8:0.326025 9:-0.175635 10:-0.741515 11:1.61224 12:1.83651 13:1.53805 14:-0.156848 15:-0.334093 16:0.125686 17:0.576112 
-0.1646070560795515 1:0.0397222 2:0.527193 3:1.53909 4:-0.165489 5:0.266993 6:1.82219 7:0.535696 8:1.18525 9:-0.170031 10:-0.767532 11:2.38581 12:3.36718 13:1.39657 14:-0.089915 15:-1.16248 16:-0.253489 17:0.732572 
-0.05927360777224684 1:0.328466 2:-0.599858 3:0.600082 4:-0.67585 5:-0.792048 6:1.2461 7:0.438661 8:-1.5868 9:-1.27258 10:-2.24879 11:1.60805 12:0.686012 13:-0.253922 14:-0.161731 15:-0.797026 16:-1.28566 17:-0.599971 
-0.1095991011749336 1:1.22352 2:-0.635239 3:2.18874 4:-0.410153 5:-0.755144 6:-0.258728 7:0.296756 8:-0.712642 9:-0.776579 10:-1.01714 11:1.08281 12:0.883472 13:-0.300766 14:0.372995 15:-0.000976797 16:-0.106775 17:0.00296737 
-0.0673244794561547 1:3.53654 2:1.50261 3:0.890525 4:1.42687 5:-1.82291 6:-3.01435 7:-1.00348 8:-1.75564 9:-0.991857 10:-1.36962 11:1.36114 12:0.850706 13:0.291529 14:-0.0428068 15:-1.72405 16:-0.669411 17:-0.180872 
-0.05227570173667331 1:4.09194 2:2.26176 3:1.36103 4:2.85992 5:-1.35212 6:-0.0398966 7:-0.245774 8:-0.507208 9:-0.0939103 10:-1.27958 11:-0.467562 12:0.979148 13:-0.97066 14:-1.15138 15:2.81205 16:1.68603 17:0.497847 
-0.05348745478019797 1:-0.0418724 2:1.19554 3:-1.17945 4:3.08429 5:-0.992117 6:0.684965 7:-0.562413 8:-1.22673 9:-0.167634 10:-1.80912 11:-0.24245 12:-2.07406 13:-1.68521 14:-0.89347 15:2.70909 16:1.90342 17:-0.546315 
-0.01694762888481697 1:3.31092 2:3.29839 3:-1.00666 4:1.9884 5:-0.198795 6:0.0897992 7:-0.770328 8:-0.682542 9:0.530237 10:-0.357932 11:0.257463 12:-0.676045 13:-0.320783 14:-0.226247 15:2.30952 16:0.964231 17:-0.808768 
-0.04676564087514521 1:3.20756 2:2.47072 3:-0.264365 4:4.06439 5:-0.814675 6:-1.95911 7:-0.554945 8:-0.407532 9:0.247626 10:-1.40446 11:-0.381905 12:-0.697411 13:-0.65356 14:-0.959087 15:3.21325 16:1.33529 17:0.0287076 
-0.002185740764173495 1:1.16251 2:2.67782 3:0.224403 4:3.22706 5:-1.00996 6:-0.280479 7:-1.34339 8:-0.878612 9:0.0451799 10:-1.73128 11:0.471262 12:0.664802 13:-0.254506 14:-0.652218 15:3.18621 16:2.58893 17:0.248876 
-0.01762967831968558 1:2.48786 2:2.74774 3:-1.01227 4:4.08078 5:-1.32297 6:-0.820378 7:-1.46339 8:-0.564689 9:-0.0785919 10:-1.45473 11:0.232251 12:0.140281 13:-0.38914 14:-0.770055 15:2.68139 16:2.36415 17:-0.0274894 
0.03453649046875282 1:-1.30457 2:-1.51069 3:1.93593 4:-0.148314 5:-0.842776 6:0.322141 7:0.287755 8:-1.89096 9:-1.26826 10:-0.852728 11:0.447368 12:1.48504 13:1.9789 14:0.939651 15:-1.26859 16:-0.12775 17:0.861894 
-1 1:-2.46899 2:-0.896641 3:2.9424 4:-0.866406 5:0.958501 6:1.39311 7:2.26426 8:0.748936 9:0.00615078 10:0.747786 11:0.427697 12:1.9038 13:0.801759 14:1.00106 15:-1.11497 16:0.67436 17:0.313801 
-0.4898727375817679 1:-2.94163 2:-0.855902 3:-0.536591 4:-0.976055 5:0.361909 6:1.84793 7:1.55771 8:-0.946564 9:0.205275 10:1.43472 11:0.376952 12:0.586275 13:1.4053 14:0.749032 15:-0.832435 16:0.268441 17:-0.71337 
-0.4987372843933455 1:-1.3131 2:-0.411412 3:2.6466 4:-0.512255 5:0.908646 6:1.5889 7:1.57304 8:-0.543128 9:-1.49812 10:-0.00837985 11:0.117994 12:1.92531 13:0.861611 14:0.542872 15:-0.621144 16:0.611767 17:0.485873 
-0.8270822687875476 1:-1.56661 2:-1.05186 3:1.11232 4:-0.951144 5:-0.146012 6:4.25226 7:1.20315 8:-0.648014 9:-1.23 10:-2.43413 11:0.392528 12:1.05501 13:-0.805806 14:0.524442 15:-1.65595 16:-0.992128 17:-0.54869 
0.1127127672359204 1:-1.32254 2:-0.938365 3:1.1886 4:-1.40589 5:0.244887 6:2.28381 7:0.694077 8:-0.720681 9:-0.294228 10:0.773125 11:1.02949 12:1.89779 13:1.38791 14:0.192182 15:0.205907 16:1.43586 17:1.50214 
0.08548979726460704 1:-1.44766 2:-0.736056 3:2.98306 4:-1.15414 5:0.734402 6:1.19361 7:0.155008 8:-1.20726 9:0.1932 10:1.27048 11:-0.259789 12:1.66335 13:0.325588 14:1.11003 15:-0.770266 16:1.52402 17:-0.200313 
-0.03727789286110946 1:-0.170571 2:-1.22246 3:0.688837 4:-1.09659 5:0.336753 6:1.94409 7:0.634763 8:-0.767557 9:0.27794 10:-0.232737 11:0.0923753 12:1.49597 13:0.368746 14:0.798475 15:-0.864591 16:0.677186 17:-0.393367 
-0.3861413267638208 1:-2.11153 2:-0.681901 3:1.27834 4:-1.81368 5:-1.05064 6:0.421209 7:0.264499 8:-0.80763 9:-0.880189 10:-1.25167 11:0.36668 12:1.14981 13:0.177915 14:0.638883 15:-1.33809 16:0.191111 17:-0.849074 
-0.9822268958113523 1:-0.510663 2:-0.840935 3:0.945359 4:0.118832 5:0.551642 6:3.2964 7:1.27212 8:0.138 9:-0.494673 10:0.0619441 11:0.596225 12:1.38813 13:-0.0627508 14:-0.0867408 15:0.596814 16:0.127436 17:1.38508 
-0.5899620402126005 1:-2.34258 2:-1.01476 3:2.39123 4:-1.45554 5:-0.40121 6:1.79816 7:1.3778 8:-0.159849 9:0.0590615 10:-1.60873 11:0.442607 12:0.55678 13:0.513634 14:0.520351 15:0.0999959 16:0.833778 17:2.24957 
-0.2381122329406353 1:0.244148 2:-0.701809 3:2.18919 4:-1.2326 5:0.210898 6:2.50904 7:0.989357 8:-0.821921 9:0.295599 10:-0.544736 11:0.1449 12:1.48551 13:-1.16584 14:0.949568 15:-0.382107 16:1.92151 17:1.15181 
0.2468068595830069 1:-0.736835 2:-1.20502 3:2.62234 4:-1.06891 5:0.269946 6:1.72148 7:0.164845 8:-0.719199 9:-0.363164 10:-0.894532 11:0.780696 12:2.1856 13:1.05492 14:1.19561 15:-1.65567 16:0.910087 17:0.987024 
-0.1916413112511315 1:-0.781549 2:-0.680208 3:1.11148 4:-0.835811 5:-0.0594789 6:0.0453976 7:-0.040327 8:0.77852 9:0.178319 10:-0.180536 11:0.264901 12:2.16801 13:0.224522 14:0.73983 15:-1.0431 16:0.72802 17:1.06345 
-0.05983263908334227 1:0.890267 2:1.21572 3:-2.40049 4:3.3697 5:-1.17825 6:-0.943552 7:-1.47446 8:-2.29103 9:-0.0958596 10:-0.636118 11:0.354719 12:-1.23726 13:1.78515 14:-0.385471 15:0.371501 16:0.122045 17:-1.38428 
-0.02758412319626797 1:3.4221 2:0.519236 3:0.911463 4:1.33466 5:-0.100279 6:0.443656 7:-1.49252 8:-0.812453 9:-0.134518 10:0.728695 11:1.44814 12:-0.584749 13:3.10392 14:-0.426009 15:-0.119983 16:0.154457 17:0.0432577 
