svm_type epsilon_svr
kernel_type rbf
gamma 0.0588235
nr_class 2
total_sv 50
rho -0.217799
SV
0.01587929289470897 1:0.465543 2:1.38793 3:-0.78785 4:1.98195 5:-1.61134 6:0.871374 7:-0.646269 8:-0.853162 9:-0.957433 10:-2.18771 11:0.625593 12:-0.0106236 13:-0.374217 14:-0.93907 15:3.21879 16:1.25707 17:-0.0559502 
0.2897115308199391 1:4.09194 2:2.26176 3:1.36103 4:2.85992 5:-1.35212 6:-0.0398966 7:-0.245774 8:-0.507208 9:-0.0939103 10:-1.27958 11:-0.467562 12:0.979148 13:-0.97066 14:-1.15138 15:2.81205 16:1.68603 17:0.497847 
0.5677142630573129 1:1.67806 2:1.71368 3:-0.531721 4:0.999859 5:-0.839195 6:0.434435 7:-0.605813 8:-0.295838 9:0.402873 10:-0.718635 11:-0.0542791 12:0.135068 13:-0.151463 14:-0.704279 15:1.9229 16:1.55572 17:-0.823359 
0.247889705362462 1:-0.0418724 2:1.19554 3:-1.17945 4:3.08429 5:-0.992117 6:0.684965 7:-0.562413 8:-1.22673 9:-0.167634 10:-1.80912 11:-0.24245 12:-2.07406 13:-1.68521 14:-0.89347 15:2.70909 16:1.90342 17:-0.546315 
0.3495587293226446 1:0.792043 2:1.40822 3:-0.849647 4:4.43755 5:-0.972778 6:-0.312901 7:-0.467319 8:-0.997993 9:-0.61283 10:-1.74241 11:0.0201607 12:-0.477383 13:-0.518335 14:-0.478594 15:1.55273 16:1.32978 17:-0.764835 
0.251321336165589 1:0.903808 2:1.25224 3:-0.853966 4:0.414458 5:-0.637681 6:0.460769 7:-0.179229 8:-0.0995349 9:-0.0324539 10:-1.74987 11:0.139341 12:-0.43857 13:0.0324638 14:-0.670893 15:2.37862 16:2.24741 17:-0.221864 
0.4190553726733819 1:3.31092 2:3.29839 3:-1.00666 4:1.9884 5:-0.198795 6:0.0897992 7:-0.770328 8:-0.682542 9:0.530237 10:-0.357932 11:0.257463 12:-0.676045 13:-0.320783 14:-0.226247 15:2.30952 16:0.964231 17:-0.808768 
0.2277833165838335 1:2.47603 2:2.38735 3:-0.249583 4:2.52222 5:-1.23455 6:-1.68813 7:-0.961101 8:0.0289888 9:-0.358785 10:-0.715084 11:0.099769 12:1.1507 13:-0.0585859 14:-1.03298 15:2.0873 16:0.875492 17:-0.606376 
0.1165446027388736 1:3.20756 2:2.47072 3:-0.264365 4:4.06439 5:-0.814675 6:-1.95911 7:-0.554945 8:-0.407532 9:0.247626 10:-1.40446 11:-0.381905 12:-0.697411 13:-0.65356 14:-0.959087 15:3.21325 16:1.33529 17:0.0287076 
0.3037812732606744 1:1.0486 2:1.10487 3:0.0792193 4:0.634176 5:-0.924764 6:-0.0442629 7:-0.401201 8:-0.957551 9:-0.203138 10:-1.75536 11:0.304731 12:0.748686 13:0.48426 14:-0.57819 15:3.07312 16:3.74293 17:0.35933 
-0.2535818158391007 1:2.47117 2:2.55506 3:-0.793912 4:2.90921 5:-0.967275 6:-0.0741738 7:-0.9397 8:-0.277903 9:0.027782 10:-0.77453 11:0.0203746 12:0.292948 13:-0.879062 14:-0.815111 15:3.32408 16:2.07574 17:-0.13294 
0.07182914426606389 1:0.916261 2:0.475812 3:-0.517924 4:1.92383 5:-0.599695 6:-0.138579 7:-0.626199 8:-0.830762 9:-0.376778 10:-1.48568 11:0.451168 12:-1.0626 13:-0.650458 14:-0.628601 15:2.017 16:2.41123 17:0.559667 
-0.5512368793732013 1:1.66776 2:1.32578 3:-0.573391 4:0.666896 5:-0.48276 6:0.680886 7:-0.403761 8:-0.296195 9:0.393191 10:-0.084263 11:0.0915474 12:-0.527611 13:-0.170947 14:0.321181 15:0.0694452 16:0.992159 17:0.495923 
-0.2156482907745 1:1.56434 2:1.51167 3:0.274386 4:-0.182275 5:-0.0969527 6:0.151768 7:-0.194229 8:-1.07826 9:-0.0222985 10:-0.115652 11:0.330814 12:0.595481 13:-0.445131 14:0.646591 15:0.366531 16:0.885681 17:-0.378118 
-0.07260404713080178 1:-2.85409 2:-0.948921 3:-1.67689 4:-1.35171 5:-1.45103 6:-1.22728 7:-0.649821 8:-2.21817 9:-0.90717 10:-1.66141 11:0.0994669 12:-1.57554 13:-0.919563 14:-0.25356 15:-1.822 16:-0.133203 17:-0.703498 
-0.0124140012745037 1:-2.86003 2:-1.99413 3:-1.88919 4:-1.58319 5:1.68729 6:3.73351 7:0.807883 8:0.413986 9:3.29108 10:1.97228 11:-0.231278 12:-1.62434 13:0.322219 14:-0.197281 15:1.38025 16:-0.174336 17:-0.934525 
-0.04910795216973668 1:-2.00092 2:-1.06501 3:-1.76141 4:-1.08101 5:1.37402 6:3.34477 7:0.459145 8:0.503188 9:2.86341 10:-0.389239 11:-0.294023 12:-2.75604 13:-0.806626 14:-0.845615 15:3.16431 16:0.198914 17:0.279855 
-0.10549357522277 1:1.52569 2:1.11871 3:-1.05612 4:0.453756 5:1.82903 6:1.87604 7:-0.152624 8:2.41839 9:3.97251 10:1.5169 11:-0.279879 12:-0.547718 13:-0.21366 14:-0.300709 15:3.17431 16:1.69973 17:0.301459 
-0.01201307872222154 1:-2.00355 2:-0.72932 3:-2.39286 4:-1.06749 5:2.33449 6:2.76224 7:0.199708 8:2.00425 9:2.47962 10:1.89621 11:-0.550619 12:0.444048 13:-0.37882 14:0.22691 15:0.199231 16:0.482379 17:-0.409498 
-0.01631906741868372 1:-2.29719 2:-1.07092 3:-0.571772 4:-1.20194 5:1.03128 6:1.55142 7:1.0931 8:1.9183 9:2.22902 10:0.347647 11:0.152011 12:-1.05945 13:-0.306966 14:-0.145367 15:3.53182 16:1.49686 17:0.52964 
-0.01690198356706819 1:-1.77926 2:-0.787983 3:-0.799454 4:-1.22142 5:1.1569 6:-0.923565 7:0.176611 8:1.03624 9:2.87485 10:0.864828 11:0.0361035 12:-0.365313 13:0.465468 14:0.118732 15:1.82187 16:0.405778 17:-0.400978 
-0.0333257296088911 1:-2.33585 2:-1.82633 3:-2.01079 4:-1.73582 5:2.91986 6:4.84378 7:0.549789 8:1.96356 9:3.37389 10:1.84699 11:-0.159528 12:-1.12925 13:0.34522 14:-0.526589 15:2.86834 16:0.0188986 17:-0.0892125 
-0.02351762065935188 1:-3.08646 2:-1.88477 3:-1.62291 4:-2.21727 5:1.81193 6:3.54966 7:0.398337 8:1.43554 9:3.12245 10:2.20766 11:-0.0293753 12:-1.50974 13:0.705422 14:-0.172725 15:2.10954 16:0.636733 17:-1.34974 
-0.03046768057571327 1:0.16382 2:0.633632 3:0.530411 4:-0.424159 5:1.88994 6:3.29643 7:0.719359 8:2.04548 9:3.41062 10:0.375428 11:-0.376409 12:-1.49654 13:-0.767054 14:-0.867537 15:4.0474 16:0.779967 17:0.975516 
-0.02148903171731961 1:0.139479 2:-0.392909 3:0.258967 4:-1.69249 5:3.40303 6:3.46585 7:1.21918 8:2.33797 9:3.23895 10:2.34058 11:-0.0629063 12:-0.0844586 13:1.51399 14:-0.500749 15:2.21719 16:0.738568 17:-0.382696 
-0.008195742811897135 1:-2.03908 2:-1.02169 3:-0.00746468 4:-1.54991 5:3.00937 6:2.51669 7:1.40617 8:1.94411 9:3.16854 10:0.542723 11:0.477453 12:-0.83 13:0.39725 14:-0.741422 15:4.43659 16:1.11523 17:0.556714 
-0.04120233655804847 1:-0.713974 2:-0.674802 3:0.0298283 4:-0.285405 5:1.46821 6:1.85538 7:-0.503136 8:0.78848 9:3.1122 10:0.430504 11:-0.228332 12:-0.208982 13:0.0604264 14:-0.472285 15:2.48719 16:1.79787 17:-0.0694108 
-0.02556158046167297 1:1.43776 2:-0.601177 3:0.937391 4:0.649045 5:-1.85719 6:-2.2802 7:-1.862 8:-1.55261 9:-1.08113 10:-1.19435 11:1.74588 12:2.47618 13:0.93416 14:0.426308 15:-0.596484 16:0.618662 17:0.792087 
-0.008958764533212576 1:0.0397222 2:0.527193 3:1.53909 4:-0.165489 5:0.266993 6:1.82219 7:0.535696 8:1.18525 9:-0.170031 10:-0.767532 11:2.38581 12:3.36718 13:1.39657 14:-0.089915 15:-1.16248 16:-0.253489 17:0.732572 
-0.09547104767250778 1:0.477915 2:-0.442552 3:0.333152 4:-0.780794 5:-1.23161 6:0.145589 7:-0.372821 8:-1.64575 9:-0.599632 10:-1.76985 11:0.589344 12:1.19336 13:-0.0442722 14:-0.683695 15:0.654743 16:0.517559 17:1.61467 
-0.1021588431255067 1:3.53654 2:1.50261 3:0.890525 4:1.42687 5:-1.82291 6:-3.01435 7:-1.00348 8:-1.75564 9:-0.991857 10:-1.36962 11:1.36114 12:0.850706 13:0.291529 14:-0.0428068 15:-1.72405 16:-0.669411 17:-0.180872 
-0.04340758083236514 1:-3.51986 2:-1.66777 3:1.73617 4:-2.17866 5:1.58099 6:3.90309 7:4.22669 8:1.11805 9:0.136361 10:0.498318 11:0.565587 12:1.27062 13:1.32265 14:0.179374 15:0.985527 16:0.892334 17:0.905266 
-0.03834644169809862 1:-0.928849 2:-1.08266 3:1.42523 4:-1.58491 5:0.266017 6:2.38164 7:2.91224 8:0.874383 9:-0.302118 10:-2.22029 11:0.547631 12:-0.574488 13:-2.20733 14:-0.199216 15:0.742297 16:-0.840122 17:0.315187 
-0.04109168545308363 1:-2.12693 2:-1.03036 3:1.94689 4:-2.48096 5:1.88786 6:5.00103 7:4.26744 8:0.997024 9:-0.423401 10:-0.614391 11:-0.0835646 12:1.56976 13:-0.929384 14:0.452099 15:-0.306616 16:0.948325 17:0.630692 
-0.02277115403422749 1:-2.33702 2:-0.886966 3:1.6597 4:-1.29679 5:0.652944 6:1.87497 7:3.08293 8:1.18533 9:-0.65947 10:-0.839036 11:0.0406787 12:0.559629 13:-0.996779 14:-0.603067 15:2.19452 16:0.0297485 17:0.452156 
-0.01518609170716232 1:-3.18956 2:-1.06008 3:0.658132 4:-1.28401 5:1.34175 6:2.59267 7:3.90865 8:-0.031098 9:-0.112751 10:0.363782 11:-0.512647 12:-0.322462 13:0.192222 14:0.520495 15:-1.00618 16:-0.446053 17:0.0682841 
-0.01706532321192502 1:-1.12272 2:-0.518959 3:0.886121 4:-1.6594 5:1.27339 6:1.86961 7:3.30841 8:1.41012 9:0.0755626 10:0.832442 11:0.249254 12:2.81062 13:0.691124 14:0.0935609 15:1.75267 16:0.47367 17:0.374258 
-0.02022148613358912 1:-0.552818 2:0.116931 3:1.95992 4:-1.12416 5:2.4496 6:3.11717 7:3.34905 8:0.871239 9:0.480602 10:2.00133 11:-0.37931 12:1.33025 13:-0.394085 14:0.887797 15:-0.356527 16:1.23252 17:-0.203855 
-0.006509278955491848 1:0.175686 2:0.142262 3:2.04006 4:-0.779125 5:1.76961 6:3.01915 7:3.99246 8:0.957795 9:-0.519476 10:0.329186 11:0.573391 12:1.24621 13:0.201841 14:-0.161393 15:-0.376405 16:-0.300346 17:-0.870793 
-0.007005434995160749 1:-4.18036 2:-1.54919 3:1.90026 4:-1.81125 5:1.44969 6:3.83818 7:2.82257 8:1.32377 9:-0.329016 10:-0.615032 11:0.503153 12:0.670818 13:-0.430543 14:0.190501 15:-0.120336 16:-0.454339 17:0.146191 
-0.008132700856515747 1:-2.92624 2:-0.554033 3:2.39583 4:-1.86839 5:1.70743 6:4.36839 7:3.89345 8:1.67534 9:0.316005 10:0.105225 11:0.197141 12:0.16857 13:0.693556 14:0.0922603 15:0.00958458 16:-0.138391 17:1.39962 
-0.0090225289958907 1:-2.46899 2:-0.896641 3:2.9424 4:-0.866406 5:0.958501 6:1.39311 7:2.26426 8:0.748936 9:0.00615078 10:0.747786 11:0.427697 12:1.9038 13:0.801759 14:1.00106 15:-1.11497 16:0.67436 17:0.313801 
-0.0485999857322973 1:-1.56661 2:-1.05186 3:1.11232 4:-0.951144 5:-0.146012 6:4.25226 7:1.20315 8:-0.648014 9:-1.23 10:-2.43413 11:0.392528 12:1.05501 13:-0.805806 14:0.524442 15:-1.65595 16:-0.992128 17:-0.54869 
-0.01199920353509036 1:-2.01701 2:-1.58519 3:2.46659 4:-1.09906 5:-0.261291 6:-0.104115 7:-0.209262 8:-0.366873 9:-0.688272 10:0.193017 11:0.607982 12:2.11957 13:0.412613 14:0.459199 15:-1.71404 16:0.347931 17:0.269726 
-0.0007974395090283696 1:-2.34258 2:-1.01476 3:2.39123 4:-1.45554 5:-0.40121 6:1.79816 7:1.3778 8:-0.159849 9:0.0590615 10:-1.60873 11:0.442607 12:0.55678 13:0.513634 14:0.520351 15:0.0999959 16:0.833778 17:2.24957 
-0.04216144710654985 1:0.55476 2:0.705198 3:3.58931 4:-0.35966 5:-0.0483275 6:1.42131 7:0.207006 8:-1.26993 9:-0.534136 10:-0.96796 11:0.193055 12:1.93203 13:-0.552213 14:0.968356 15:0.126507 16:1.39964 17:0.340547 
-0.177844206606845 1:0.707395 2:1.46661 3:-1.91348 4:0.829378 5:-0.566051 6:-0.128791 7:-0.502514 8:-0.720842 9:0.193227 10:0.0240766 11:0.601189 12:-0.193351 13:1.64229 14:-0.338211 15:1.26945 16:0.22366 17:-1.66227 
-0.2036972866241601 1:0.397751 2:0.965968 3:-0.800786 4:1.21252 5:-1.52004 6:-0.776065 7:-0.788385 8:-1.70105 9:-0.643056 10:-1.23378 11:0.219894 12:-0.540193 13:2.16826 14:-0.898267 15:1.69388 16:-0.309014 17:-1.22014 
-0.1620881489748419 1:0.890267 2:1.21572 3:-2.40049 4:3.3697 5:-1.17825 6:-0.943552 7:-1.47446 8:-2.29103 9:-0.0958596 10:-0.636118 11:0.354719 12:-1.23726 13:1.78515 14:-0.385471 15:0.371501 16:0.122045 17:-1.38428 
-0.2894520729664515 1:1.91158 2:0.991299 3:-0.401124 4:2.58346 5:-0.282403 6:0.754394 7:-0.281488 8:-0.469124 9:0.134705 10:-0.66594 11:1.20151 12:0.228244 13:2.97654 14:-0.553588 15:1.3686 16:0.633933 17:-0.429775 
