svm_type epsilon_svr
kernel_type rbf
gamma 0.0588235
nr_class 2
total_sv 59
rho -0.19656
SV
0.1496396353536384 1:1.43776 2:-0.601177 3:0.937391 4:0.649045 5:-1.85719 6:-2.2802 7:-1.862 8:-1.55261 9:-1.08113 10:-1.19435 11:1.74588 12:2.47618 13:0.93416 14:0.426308 15:-0.596484 16:0.618662 17:0.792087 
0.2896403556135799 1:0.0397222 2:0.527193 3:1.53909 4:-0.165489 5:0.266993 6:1.82219 7:0.535696 8:1.18525 9:-0.170031 10:-0.767532 11:2.38581 12:3.36718 13:1.39657 14:-0.089915 15:-1.16248 16:-0.253489 17:0.732572 
0.4118797692815549 1:0.328466 2:-0.599858 3:0.600082 4:-0.67585 5:-0.792048 6:1.2461 7:0.438661 8:-1.5868 9:-1.27258 10:-2.24879 11:1.60805 12:0.686012 13:-0.253922 14:-0.161731 15:-0.797026 16:-1.28566 17:-0.599971 
0.8189756824808819 1:1.33292 2:0.742222 3:-0.342135 4:0.218051 5:-0.318419 6:0.63586 7:-0.189989 8:1.20654 9:0.340608 10:-0.403926 11:2.06586 12:1.12589 13:1.10961 14:0.031655 15:0.473779 16:1.07508 17:0.270387 
0.7812139897771995 1:0.477915 2:-0.442552 3:0.333152 4:-0.780794 5:-1.23161 6:0.145589 7:-0.372821 8:-1.64575 9:-0.599632 10:-1.76985 11:0.589344 12:1.19336 13:-0.0442722 14:-0.683695 15:0.654743 16:0.517559 17:1.61467 
0.5922652559438044 1:0.313991 2:-0.525687 3:-0.0920327 4:-0.669959 5:-1.40719 6:-1.05105 7:-0.500384 8:-1.77554 9:-0.684826 10:-1.69455 11:1.26704 12:1.09775 13:-0.807186 14:-0.125606 15:-1.17167 16:-0.12107 17:-0.919924 
1 1:-0.696841 2:-0.678608 3:-0.0625209 4:-0.731243 5:-0.998873 6:0.757489 7:-0.474745 8:-1.07649 9:-0.674337 10:-1.17532 11:0.761041 12:-0.666679 13:0.775413 14:-0.557221 15:0.037039 16:-0.014419 17:-0.675689 
0.401325334692769 1:2.96943 2:-0.263407 3:1.17767 4:-0.0646633 5:-1.00878 6:0.0518755 7:-0.243555 8:-1.71857 9:-0.511207 10:-2.20752 11:0.517543 12:0.948168 13:-0.722852 14:0.355911 15:-0.882999 16:-0.0129746 17:0.348579 
1 1:-1.17505 2:-1.03512 3:1.94896 4:-0.927693 5:-0.541877 6:-0.617443 7:0.541758 8:-0.164776 9:-0.056569 10:-0.1532 11:1.66921 12:1.34168 13:0.975039 14:-0.228812 15:-0.637885 16:0.288875 17:0.352612 
-0.0396726015162743 1:1.11156 2:0.446503 3:-0.50454 4:0.0564284 5:-1.08032 6:0.0776261 7:-1.13129 8:-0.862941 9:-0.453421 10:-1.52196 11:2.1663 12:1.49207 13:0.427629 14:-0.120922 15:-1.11746 16:0.0192805 17:0.189126 
0.5176180971912664 1:1.22352 2:-0.635239 3:2.18874 4:-0.410153 5:-0.755144 6:-0.258728 7:0.296756 8:-0.712642 9:-0.776579 10:-1.01714 11:1.08281 12:0.883472 13:-0.300766 14:0.372995 15:-0.000976797 16:-0.106775 17:0.00296737 
1 1:-0.495083 2:-0.622191 3:0.523921 4:-1.08368 5:0.149916 6:0.99743 7:0.353212 8:-0.163214 9:-0.584441 10:-0.231462 11:1.60183 12:2.16522 13:0.872343 14:0.182685 15:-1.48319 16:0.0888926 17:1.25115 
0.5951660651531658 1:3.53654 2:1.50261 3:0.890525 4:1.42687 5:-1.82291 6:-3.01435 7:-1.00348 8:-1.75564 9:-0.991857 10:-1.36962 11:1.36114 12:0.850706 13:0.291529 14:-0.0428068 15:-1.72405 16:-0.669411 17:-0.180872 
0.01251318193569102 1:-2.46378 2:-1.02631 3:-1.12431 4:-0.425079 5:-0.878174 6:0.2627 7:-0.225586 8:-1.24079 9:-0.345425 10:-0.762222 11:-0.101234 12:-1.08246 13:-0.408639 14:0.380677 15:-0.588888 16:0.662796 17:-0.277853 
-0.02397332289269067 1:-0.654202 2:-0.465769 3:-0.685557 4:-0.413014 5:-1.17231 6:0.520954 7:-0.648822 8:-1.50207 9:-0.512651 10:-1.67572 11:-0.0571852 12:-0.600215 13:-0.119829 14:-0.101167 15:-0.473774 16:-0.379782 17:-0.555045 
-0.2727087071533275 1:-0.841306 2:-1.21944 3:0.077701 4:-0.362028 5:0.0119706 6:-0.210078 7:0.43884 8:0.16172 9:0.253669 10:0.795883 11:0.144026 12:1.3643 13:0.701391 14:-0.130515 15:1.33321 16:0.0951676 17:0.0836348 
-0.139203086745426 1:-0.333683 2:-0.496044 3:-0.601958 4:-0.844553 5:-0.0459089 6:1.90244 7:0.555105 8:-0.686766 9:-0.0477715 10:-0.232386 11:0.345352 12:-0.268586 13:0.742045 14:-0.00682913 15:-0.0610666 16:-0.61209 17:0.00502266 
-1 1:0.676633 2:0.232222 3:-0.156367 4:-0.397748 5:-0.601409 6:0.483698 7:-0.611413 8:-1.62566 9:-0.593563 10:-0.80011 11:0.0477409 12:0.628177 13:0.632398 14:0.0382209 15:-0.397665 16:0.171813 17:-0.292181 
-0.3477887038012427 1:-1.01875 2:-0.449893 3:-0.392653 4:-0.043952 5:-0.916283 6:-0.637458 7:-0.272662 8:-1.00136 9:-0.684401 10:-1.8768 11:0.0372237 12:-0.245506 13:-0.363203 14:-0.00249259 15:-0.700036 16:0.0647169 17:-0.0944565 
-0.01496988412433154 1:-0.371068 2:0.0388718 3:-0.312157 4:-0.145744 5:-0.994892 6:0.838985 7:-0.507995 8:-1.6713 9:-0.650802 10:-1.04458 11:0.173525 12:0.0884077 13:-0.0340948 14:0.0293105 15:0.137848 16:0.190872 17:-0.32525 
-0.641827922691847 1:-0.174973 2:0.736493 3:0.0258838 4:-0.629576 5:-1.11481 6:0.333286 7:0.477534 8:-0.734463 9:-0.604386 10:-0.90772 11:0.43806 12:-0.349058 13:-0.385651 14:0.075585 15:-0.162215 16:0.271607 17:0.244063 
-0.3705971516870373 1:-0.764714 2:-1.14529 3:-0.6167 4:-1.07385 5:-1.07753 6:-0.60173 7:-0.331185 8:-1.59118 9:-1.08076 10:-1.47373 11:0.0591173 12:-1.04521 13:0.255264 14:0.0379699 15:-1.12437 16:-0.922212 17:-0.890628 
0.00920900149052449 1:-1.33343 2:-0.0374241 3:-0.664352 4:-1.05264 5:-0.0719556 6:-0.0466513 7:-0.313578 8:-0.372213 9:0.378538 10:-0.265689 11:-0.1028 12:0.412595 13:0.576617 14:0.321739 15:-0.631094 16:0.781033 17:0.786661 
-0.03302760091536189 1:-2.00092 2:-1.06501 3:-1.76141 4:-1.08101 5:1.37402 6:3.34477 7:0.459145 8:0.503188 9:2.86341 10:-0.389239 11:-0.294023 12:-2.75604 13:-0.806626 14:-0.845615 15:3.16431 16:0.198914 17:0.279855 
-0.05768858570633213 1:1.52569 2:1.11871 3:-1.05612 4:0.453756 5:1.82903 6:1.87604 7:-0.152624 8:2.41839 9:3.97251 10:1.5169 11:-0.279879 12:-0.547718 13:-0.21366 14:-0.300709 15:3.17431 16:1.69973 17:0.301459 
-0.03940508577110599 1:0.75156 2:0.446601 3:-0.439015 4:-0.0415398 5:2.0651 6:1.60172 7:0.615819 8:2.45038 9:2.96639 10:3.09115 11:0.24154 12:0.181283 13:1.10807 14:0.752913 15:0.589977 16:1.02227 17:0.568581 
-0.03625659666321398 1:-2.33585 2:-1.82633 3:-2.01079 4:-1.73582 5:2.91986 6:4.84378 7:0.549789 8:1.96356 9:3.37389 10:1.84699 11:-0.159528 12:-1.12925 13:0.34522 14:-0.526589 15:2.86834 16:0.0188986 17:-0.0892125 
-0.0229779685335224 1:-3.08646 2:-1.88477 3:-1.62291 4:-2.21727 5:1.81193 6:3.54966 7:0.398337 8:1.43554 9:3.12245 10:2.20766 11:-0.0293753 12:-1.50974 13:0.705422 14:-0.172725 15:2.10954 16:0.636733 17:-1.34974 
-0.007006629001175621 1:-1.90903 2:-0.672812 3:-2.69201 4:-1.85964 5:0.621652 6:0.908132 7:-0.138066 8:-0.0746879 9:2.42641 10:0.571468 11:0.267671 12:-1.59617 13:0.619585 14:-0.596302 15:1.33462 16:-0.351988 17:-0.698674 
-0.01726154841819258 1:0.16382 2:0.633632 3:0.530411 4:-0.424159 5:1.88994 6:3.29643 7:0.719359 8:2.04548 9:3.41062 10:0.375428 11:-0.376409 12:-1.49654 13:-0.767054 14:-0.867537 15:4.0474 16:0.779967 17:0.975516 
-0.0134441046604178 1:0.139479 2:-0.392909 3:0.258967 4:-1.69249 5:3.40303 6:3.46585 7:1.21918 8:2.33797 9:3.23895 10:2.34058 11:-0.0629063 12:-0.0844586 13:1.51399 14:-0.500749 15:2.21719 16:0.738568 17:-0.382696 
-0.01639899439769776 1:-2.03908 2:-1.02169 3:-0.00746468 4:-1.54991 5:3.00937 6:2.51669 7:1.40617 8:1.94411 9:3.16854 10:0.542723 11:0.477453 12:-0.83 13:0.39725 14:-0.741422 15:4.43659 16:1.11523 17:0.556714 
-0.07527294807608087 1:0.465543 2:1.38793 3:-0.78785 4:1.98195 5:-1.61134 6:0.871374 7:-0.646269 8:-0.853162 9:-0.957433 10:-2.18771 11:0.625593 12:-0.0106236 13:-0.374217 14:-0.93907 15:3.21879 16:1.25707 17:-0.0559502 
-0.06415324277117965 1:4.09194 2:2.26176 3:1.36103 4:2.85992 5:-1.35212 6:-0.0398966 7:-0.245774 8:-0.507208 9:-0.0939103 10:-1.27958 11:-0.467562 12:0.979148 13:-0.97066 14:-1.15138 15:2.81205 16:1.68603 17:0.497847 
-0.0520321800855047 1:2.30915 2:2.05163 3:0.0492841 4:0.414656 5:-0.842903 6:0.100244 7:0.151021 8:-0.517425 9:0.139722 10:-1.05977 11:0.648333 12:0.42367 13:-0.216465 14:-0.968624 15:3.76394 16:2.25869 17:0.266296 
-0.08575633083009541 1:2.47603 2:2.38735 3:-0.249583 4:2.52222 5:-1.23455 6:-1.68813 7:-0.961101 8:0.0289888 9:-0.358785 10:-0.715084 11:0.099769 12:1.1507 13:-0.0585859 14:-1.03298 15:2.0873 16:0.875492 17:-0.606376 
-0.1403095053045891 1:1.0486 2:1.10487 3:0.0792193 4:0.634176 5:-0.924764 6:-0.0442629 7:-0.401201 8:-0.957551 9:-0.203138 10:-1.75536 11:0.304731 12:0.748686 13:0.48426 14:-0.57819 15:3.07312 16:3.74293 17:0.35933 
-0.01463647848373292 1:-1.17811 2:0.0517776 3:1.43514 4:-1.18766 5:1.74361 6:2.99476 7:3.48547 8:1.49618 9:-0.110729 10:-0.664228 11:0.868322 12:1.54078 13:1.19305 14:-0.167543 15:0.3139 16:0.562837 17:0.800693 
-0.01205677124237597 1:-1.97113 2:-1.03494 3:0.353198 4:-2.26828 5:1.12014 6:3.74392 7:2.94762 8:0.160839 9:-1.00505 10:-1.37903 11:1.19924 12:0.547446 13:-0.505103 14:0.271795 15:-0.750304 16:-0.625472 17:-0.305314 
-0.01847719527927888 1:-0.928849 2:-1.08266 3:1.42523 4:-1.58491 5:0.266017 6:2.38164 7:2.91224 8:0.874383 9:-0.302118 10:-2.22029 11:0.547631 12:-0.574488 13:-2.20733 14:-0.199216 15:0.742297 16:-0.840122 17:0.315187 
-0.05221736656389125 1:-1.56295 2:-0.97296 3:2.06828 4:-0.577589 5:-0.100086 6:1.86954 7:1.97427 8:0.351476 9:-0.611348 10:-1.65623 11:0.539642 12:0.867211 13:-0.749256 14:-0.206143 15:-0.789121 16:-0.263455 17:0.330272 
-0.1055936157945943 1:0.233045 2:-0.0733524 3:3.21207 4:-1.26542 5:1.3349 6:2.24107 7:2.97077 8:0.346545 9:0.433258 10:-0.344061 11:0.636507 12:1.50086 13:0.67894 14:0.599744 15:-0.123854 16:-0.456148 17:-0.0623561 
-0.1880516827278803 1:-0.381642 2:-0.363931 3:1.91512 4:-0.271384 5:0.144381 6:0.75192 7:2.0162 8:0.607699 9:-0.818304 10:-0.0386363 11:0.150067 12:1.0875 13:-0.472463 14:-0.342767 15:-0.475026 16:-1.26117 17:2.09048 
-0.1194538679610292 1:-2.07017 2:-1.02049 3:0.845935 4:-0.981311 5:0.317157 6:0.622686 7:1.94479 8:1.91838 9:-0.0071989 10:-0.036904 11:1.06634 12:1.37206 13:-0.23458 14:0.308977 15:0.252741 16:-0.471965 17:0.0425187 
-0.2790542209673945 1:-1.30457 2:-1.51069 3:1.93593 4:-0.148314 5:-0.842776 6:0.322141 7:0.287755 8:-1.89096 9:-1.26826 10:-0.852728 11:0.447368 12:1.48504 13:1.9789 14:0.939651 15:-1.26859 16:-0.12775 17:0.861894 
-0.0997168946837744 1:-1.56661 2:-1.05186 3:1.11232 4:-0.951144 5:-0.146012 6:4.25226 7:1.20315 8:-0.648014 9:-1.23 10:-2.43413 11:0.392528 12:1.05501 13:-0.805806 14:0.524442 15:-1.65595 16:-0.992128 17:-0.54869 
-0.4191302626303036 1:-1.32254 2:-0.938365 3:1.1886 4:-1.40589 5:0.244887 6:2.28381 7:0.694077 8:-0.720681 9:-0.294228 10:0.773125 11:1.02949 12:1.89779 13:1.38791 14:0.192182 15:0.205907 16:1.43586 17:1.50214 
-0.3225564272254556 1:-2.01701 2:-1.58519 3:2.46659 4:-1.09906 5:-0.261291 6:-0.104115 7:-0.209262 8:-0.366873 9:-0.688272 10:0.193017 11:0.607982 12:2.11957 13:0.412613 14:0.459199 15:-1.71404 16:0.347931 17:0.269726 
-0.6670203275504103 1:0.91896 2:-0.169354 3:2.82512 4:-0.15337 5:-0.799031 6:0.317713 7:0.0771056 8:-2.48164 9:-0.662389 10:-0.931342 11:0.197146 12:0.0965043 13:-0.0299631 14:0.438778 15:-1.0062 16:0.0923825 17:0.144053 
0.2435019484583647 1:-1.44766 2:-0.736056 3:2.98306 4:-1.15414 5:0.734402 6:1.19361 7:0.155008 8:-1.20726 9:0.1932 10:1.27048 11:-0.259789 12:1.66335 13:0.325588 14:1.11003 15:-0.770266 16:1.52402 17:-0.200313 
-0.1816470816271275 1:-2.11153 2:-0.681901 3:1.27834 4:-1.81368 5:-1.05064 6:0.421209 7:0.264499 8:-0.80763 9:-0.880189 10:-1.25167 11:0.36668 12:1.14981 13:0.177915 14:0.638883 15:-1.33809 16:0.191111 17:-0.849074 
-0.002503495279294584 1:-0.510663 2:-0.840935 3:0.945359 4:0.118832 5:0.551642 6:3.2964 7:1.27212 8:0.138 9:-0.494673 10:0.0619441 11:0.596225 12:1.38813 13:-0.0627508 14:-0.0867408 15:0.596814 16:0.127436 17:1.38508 
-0.05043785618925122 1:0.55476 2:0.705198 3:3.58931 4:-0.35966 5:-0.0483275 6:1.42131 7:0.207006 8:-1.26993 9:-0.534136 10:-0.96796 11:0.193055 12:1.93203 13:-0.552213 14:0.968356 15:0.126507 16:1.39964 17:0.340547 
-0.178421419676594 1:-0.736835 2:-1.20502 3:2.62234 4:-1.06891 5:0.269946 6:1.72148 7:0.164845 8:-0.719199 9:-0.363164 10:-0.894532 11:0.780696 12:2.1856 13:1.05492 14:1.19561 15:-1.65567 16:0.910087 17:0.987024 
-0.9148050857951346 1:-0.781549 2:-0.680208 3:1.11148 4:-0.835811 5:-0.0594789 6:0.0453976 7:-0.040327 8:0.77852 9:0.178319 10:-0.180536 11:0.264901 12:2.16801 13:0.224522 14:0.73983 15:-1.0431 16:0.72802 17:1.06345 
-0.1937392652258039 1:2.18704 2:1.6384 3:-0.877657 4:0.491196 5:-0.583779 6:-0.96494 7:-0.806039 8:0.315315 9:0.802715 10:0.965539 11:0.758497 12:-0.207096 13:1.99478 14:-0.773002 15:0.266518 16:0.578672 17:0.0195614 
-0.1845738926071797 1:0.945542 2:0.606044 3:-1.13025 4:2.27789 5:-1.57201 6:-2.42073 7:-0.42449 8:-1.95634 9:-0.95319 10:-0.884388 11:0.825142 12:-0.285665 13:1.61828 14:0.348254 15:-0.18933 16:0.209332 17:-0.81683 
-0.1451237653772037 1:1.91158 2:0.991299 3:-0.401124 4:2.58346 5:-0.282403 6:0.754394 7:-0.281488 8:-0.469124 9:0.134705 10:-0.66594 11:1.20151 12:0.228244 13:2.97654 14:-0.553588 15:1.3686 16:0.633933 17:-0.429775 
-0.1619986427380828 1:3.4221 2:0.519236 3:0.911463 4:1.33466 5:-0.100279 6:0.443656 7:-1.49252 8:-0.812453 9:-0.134518 10:0.728695 11:1.44814 12:-0.584749 13:3.10392 14:-0.426009 15:-0.119983 16:0.154457 17:0.0432577 
