svm_type epsilon_svr
kernel_type rbf
gamma 0.0588235
nr_class 2
total_sv 56
rho -0.29812
SV
0.02717964135080142 1:-1.05248 2:-0.0408948 3:0.523044 4:-0.866403 5:2.53867 6:1.31849 7:1.50871 8:2.2401 9:3.10556 10:2.10486 11:0.207174 12:-0.231879 13:1.44162 14:-0.369079 15:2.92539 16:1.72644 17:0.51957 
0.2084892667707634 1:-2.00092 2:-1.06501 3:-1.76141 4:-1.08101 5:1.37402 6:3.34477 7:0.459145 8:0.503188 9:2.86341 10:-0.389239 11:-0.294023 12:-2.75604 13:-0.806626 14:-0.845615 15:3.16431 16:0.198914 17:0.279855 
0.1168936118623418 1:-2.03035 2:-0.570216 3:1.24689 4:-0.818985 5:1.56864 6:1.93542 7:-0.445569 8:1.10294 9:2.44217 10:0.448216 11:-0.52367 12:-0.409551 13:1.1402 14:-0.23516 15:2.33763 16:0.35512 17:-0.377629 
0.3127174556123699 1:1.52569 2:1.11871 3:-1.05612 4:0.453756 5:1.82903 6:1.87604 7:-0.152624 8:2.41839 9:3.97251 10:1.5169 11:-0.279879 12:-0.547718 13:-0.21366 14:-0.300709 15:3.17431 16:1.69973 17:0.301459 
-0.2471353170017038 1:-1.31551 2:-0.450719 3:-0.651288 4:-1.50789 5:1.73409 6:2.49619 7:0.631083 8:1.46674 9:2.48671 10:1.28885 11:-0.393037 12:-0.809633 13:0.845796 14:-0.541126 15:2.13862 16:0.0613152 17:-0.759689 
0.2389769495476902 1:-2.00355 2:-0.72932 3:-2.39286 4:-1.06749 5:2.33449 6:2.76224 7:0.199708 8:2.00425 9:2.47962 10:1.89621 11:-0.550619 12:0.444048 13:-0.37882 14:0.22691 15:0.199231 16:0.482379 17:-0.409498 
0.01392361041565264 1:-2.29719 2:-1.07092 3:-0.571772 4:-1.20194 5:1.03128 6:1.55142 7:1.0931 8:1.9183 9:2.22902 10:0.347647 11:0.152011 12:-1.05945 13:-0.306966 14:-0.145367 15:3.53182 16:1.49686 17:0.52964 
1 1:-2.31791 2:-0.937601 3:-1.2673 4:-1.12552 5:0.575945 6:0.357753 7:0.548172 8:-0.164266 9:1.8693 10:1.23127 11:0.241702 12:-0.230926 13:0.54772 14:0.11727 15:1.00785 16:0.18329 17:-0.609468 
-0.2694455368899016 1:-1.24751 2:-0.389266 3:-1.1497 4:-0.690583 5:2.44725 6:2.6306 7:1.059 8:1.9686 9:3.02351 10:1.76066 11:-0.111842 12:-0.816383 13:0.894774 14:-0.00599499 15:2.36475 16:0.508913 17:0.14576 
0.3272063112219716 1:0.75156 2:0.446601 3:-0.439015 4:-0.0415398 5:2.0651 6:1.60172 7:0.615819 8:2.45038 9:2.96639 10:3.09115 11:0.24154 12:0.181283 13:1.10807 14:0.752913 15:0.589977 16:1.02227 17:0.568581 
-0.05498180629182098 1:-2.41049 2:-0.958409 3:-1.44311 4:-1.69236 5:1.49493 6:1.61303 7:0.152305 8:0.541155 9:3.43032 10:0.576639 11:-0.23968 12:-1.08869 13:1.03549 14:-0.592172 15:2.67575 16:0.347348 17:-0.681988 
0.1047221397922489 1:0.138857 2:0.150232 3:0.775831 4:-0.692307 5:1.29721 6:1.45685 7:0.00977242 8:0.685751 9:2.73989 10:0.747722 11:-0.264039 12:-0.729009 13:2.1166 14:-0.101078 15:2.50057 16:0.638183 17:0.346852 
0.409125357448441 1:-0.825616 2:-0.932214 3:0.295779 4:-1.49652 5:1.06568 6:2.41098 7:0.970545 8:0.212065 9:1.89127 10:0.84683 11:-0.0383274 12:-0.57631 13:0.953108 14:-0.278265 15:1.39784 16:0.250538 17:0.197186 
0.3188157780379455 1:-2.33585 2:-1.82633 3:-2.01079 4:-1.73582 5:2.91986 6:4.84378 7:0.549789 8:1.96356 9:3.37389 10:1.84699 11:-0.159528 12:-1.12925 13:0.34522 14:-0.526589 15:2.86834 16:0.0188986 17:-0.0892125 
0.08266416094516943 1:-3.08646 2:-1.88477 3:-1.62291 4:-2.21727 5:1.81193 6:3.54966 7:0.398337 8:1.43554 9:3.12245 10:2.20766 11:-0.0293753 12:-1.50974 13:0.705422 14:-0.172725 15:2.10954 16:0.636733 17:-1.34974 
0.2346786130457233 1:-1.90903 2:-0.672812 3:-2.69201 4:-1.85964 5:0.621652 6:0.908132 7:-0.138066 8:-0.0746879 9:2.42641 10:0.571468 11:0.267671 12:-1.59617 13:0.619585 14:-0.596302 15:1.33462 16:-0.351988 17:-0.698674 
0.03707462355017546 1:-0.789868 2:-0.888042 3:0.546661 4:-1.81611 5:2.20611 6:3.24194 7:0.94038 8:1.28807 9:3.29846 10:0.39385 11:-0.05164 12:-1.41149 13:-1.38365 14:-0.385993 15:2.73461 16:1.75432 17:1.0551 
0.07106361961241263 1:0.58594 2:0.00415169 3:-0.24828 4:-1.15283 5:1.58929 6:2.33615 7:0.731289 8:0.677903 9:2.21705 10:0.277114 11:0.363049 12:-0.293811 13:-0.785357 14:-0.564545 15:2.57473 16:0.430199 17:0.048253 
-0.1865280130948011 1:-0.722613 2:0.00089958 3:-1.02966 4:-1.53146 5:1.73947 6:2.46259 7:0.46012 8:1.85299 9:3.27068 10:1.80775 11:0.044014 12:-1.10219 13:0.095952 14:-0.789706 15:2.92605 16:0.369137 17:0.282513 
0.1947089317031519 1:0.16382 2:0.633632 3:0.530411 4:-0.424159 5:1.88994 6:3.29643 7:0.719359 8:2.04548 9:3.41062 10:0.375428 11:-0.376409 12:-1.49654 13:-0.767054 14:-0.867537 15:4.0474 16:0.779967 17:0.975516 
0.2450060861379599 1:0.139479 2:-0.392909 3:0.258967 4:-1.69249 5:3.40303 6:3.46585 7:1.21918 8:2.33797 9:3.23895 10:2.34058 11:-0.0629063 12:-0.0844586 13:1.51399 14:-0.500749 15:2.21719 16:0.738568 17:-0.382696 
0.1985975439436179 1:-2.03908 2:-1.02169 3:-0.00746468 4:-1.54991 5:3.00937 6:2.51669 7:1.40617 8:1.94411 9:3.16854 10:0.542723 11:0.477453 12:-0.83 13:0.39725 14:-0.741422 15:4.43659 16:1.11523 17:0.556714 
0.001063272677704772 1:-0.769894 2:0.173455 3:-0.885528 4:-1.47664 5:2.41468 6:2.66115 7:2.10281 8:2.04202 9:2.67315 10:2.30597 11:0.257533 12:-0.29487 13:1.17447 14:-0.0881824 15:1.8198 16:0.560111 17:-0.165806 
-0.6151293503577054 1:-2.13021 2:-0.479327 3:-1.94307 4:-1.6199 5:-0.205901 6:-0.378313 7:-0.399486 8:-0.914361 9:0.525102 10:0.540907 11:0.231764 12:-0.869635 13:1.21804 14:0.160404 15:-0.510839 16:0.324651 17:-1.17524 
-0.07049977813631374 1:-1.22879 2:-0.964221 3:-1.96169 4:-0.0970011 5:-1.22438 6:0.562762 7:-0.569347 8:-2.18157 9:0.0623324 10:-1.34022 11:-0.190833 12:-2.49151 13:0.0154315 14:-0.653635 15:-0.489946 16:-1.11857 17:-1.22242 
-0.521967221217707 1:-0.841306 2:-1.21944 3:0.077701 4:-0.362028 5:0.0119706 6:-0.210078 7:0.43884 8:0.16172 9:0.253669 10:0.795883 11:0.144026 12:1.3643 13:0.701391 14:-0.130515 15:1.33321 16:0.0951676 17:0.0836348 
-0.05875365378140743 1:-0.333683 2:-0.496044 3:-0.601958 4:-0.844553 5:-0.0459089 6:1.90244 7:0.555105 8:-0.686766 9:-0.0477715 10:-0.232386 11:0.345352 12:-0.268586 13:0.742045 14:-0.00682913 15:-0.0610666 16:-0.61209 17:0.00502266 
-0.001391094387723387 1:-2.85409 2:-0.948921 3:-1.67689 4:-1.35171 5:-1.45103 6:-1.22728 7:-0.649821 8:-2.21817 9:-0.90717 10:-1.66141 11:0.0994669 12:-1.57554 13:-0.919563 14:-0.25356 15:-1.822 16:-0.133203 17:-0.703498 
-0.04128712697104374 1:1.43776 2:-0.601177 3:0.937391 4:0.649045 5:-1.85719 6:-2.2802 7:-1.862 8:-1.55261 9:-1.08113 10:-1.19435 11:1.74588 12:2.47618 13:0.93416 14:0.426308 15:-0.596484 16:0.618662 17:0.792087 
-0.03607841406308398 1:0.0397222 2:0.527193 3:1.53909 4:-0.165489 5:0.266993 6:1.82219 7:0.535696 8:1.18525 9:-0.170031 10:-0.767532 11:2.38581 12:3.36718 13:1.39657 14:-0.089915 15:-1.16248 16:-0.253489 17:0.732572 
-0.02222362815789473 1:1.33292 2:0.742222 3:-0.342135 4:0.218051 5:-0.318419 6:0.63586 7:-0.189989 8:1.20654 9:0.340608 10:-0.403926 11:2.06586 12:1.12589 13:1.10961 14:0.031655 15:0.473779 16:1.07508 17:0.270387 
-0.01435357575399985 1:2.96943 2:-0.263407 3:1.17767 4:-0.0646633 5:-1.00878 6:0.0518755 7:-0.243555 8:-1.71857 9:-0.511207 10:-2.20752 11:0.517543 12:0.948168 13:-0.722852 14:0.355911 15:-0.882999 16:-0.0129746 17:0.348579 
-0.1222029258498393 1:3.53654 2:1.50261 3:0.890525 4:1.42687 5:-1.82291 6:-3.01435 7:-1.00348 8:-1.75564 9:-0.991857 10:-1.36962 11:1.36114 12:0.850706 13:0.291529 14:-0.0428068 15:-1.72405 16:-0.669411 17:-0.180872 
-0.06979250370393662 1:4.09194 2:2.26176 3:1.36103 4:2.85992 5:-1.35212 6:-0.0398966 7:-0.245774 8:-0.507208 9:-0.0939103 10:-1.27958 11:-0.467562 12:0.979148 13:-0.97066 14:-1.15138 15:2.81205 16:1.68603 17:0.497847 
-0.06617029104412231 1:1.07657 2:1.69597 3:-1.55347 4:0.816507 5:-0.58419 6:0.324487 7:-0.59734 8:-0.587364 9:0.327542 10:-0.915356 11:0.0807568 12:-0.749869 13:0.0390175 14:-0.390625 15:3.02977 16:2.11809 17:-1.0198 
-0.09243351757272483 1:-0.0418724 2:1.19554 3:-1.17945 4:3.08429 5:-0.992117 6:0.684965 7:-0.562413 8:-1.22673 9:-0.167634 10:-1.80912 11:-0.24245 12:-2.07406 13:-1.68521 14:-0.89347 15:2.70909 16:1.90342 17:-0.546315 
-0.02927377450775324 1:3.31092 2:3.29839 3:-1.00666 4:1.9884 5:-0.198795 6:0.0897992 7:-0.770328 8:-0.682542 9:0.530237 10:-0.357932 11:0.257463 12:-0.676045 13:-0.320783 14:-0.226247 15:2.30952 16:0.964231 17:-0.808768 
-0.09591045424890099 1:1.68433 2:1.76992 3:0.33833 4:2.22779 5:-0.193522 6:0.955584 7:-0.199847 8:-0.272118 9:0.681694 10:-1.32936 11:0.703545 12:-0.173105 13:-0.526083 14:-1.42314 15:3.85337 16:2.70902 17:-0.0747409 
-0.06107315424711963 1:3.20756 2:2.47072 3:-0.264365 4:4.06439 5:-0.814675 6:-1.95911 7:-0.554945 8:-0.407532 9:0.247626 10:-1.40446 11:-0.381905 12:-0.697411 13:-0.65356 14:-0.959087 15:3.21325 16:1.33529 17:0.0287076 
-0.0172400834452082 1:1.0486 2:1.10487 3:0.0792193 4:0.634176 5:-0.924764 6:-0.0442629 7:-0.401201 8:-0.957551 9:-0.203138 10:-1.75536 11:0.304731 12:0.748686 13:0.48426 14:-0.57819 15:3.07312 16:3.74293 17:0.35933 
-0.08500292312493443 1:-1.77047 2:-0.2995 3:1.11757 4:-1.58275 5:1.74198 6:4.6597 7:2.88541 8:1.3918 9:0.532728 10:-0.320249 11:0.0550149 12:0.567583 13:-0.442346 14:-0.106892 15:0.783986 16:0.844796 17:0.481075 
-0.03954457341654367 1:-3.51986 2:-1.66777 3:1.73617 4:-2.17866 5:1.58099 6:3.90309 7:4.22669 8:1.11805 9:0.136361 10:0.498318 11:0.565587 12:1.27062 13:1.32265 14:0.179374 15:0.985527 16:0.892334 17:0.905266 
-0.09287356718551792 1:-0.928849 2:-1.08266 3:1.42523 4:-1.58491 5:0.266017 6:2.38164 7:2.91224 8:0.874383 9:-0.302118 10:-2.22029 11:0.547631 12:-0.574488 13:-2.20733 14:-0.199216 15:0.742297 16:-0.840122 17:0.315187 
-0.3261595903690277 1:-3.44541 2:-0.783716 3:-0.398751 4:-1.43021 5:0.489456 6:3.67071 7:2.45093 8:0.529467 9:0.155212 10:-0.10949 11:0.229105 12:-0.560366 13:0.0591767 14:0.236513 15:0.792032 16:-0.103321 17:-0.709718 
-0.009518948165985695 1:-1.12272 2:-0.518959 3:0.886121 4:-1.6594 5:1.27339 6:1.86961 7:3.30841 8:1.41012 9:0.0755626 10:0.832442 11:0.249254 12:2.81062 13:0.691124 14:0.0935609 15:1.75267 16:0.47367 17:0.374258 
-0.1412564711829852 1:-0.552818 2:0.116931 3:1.95992 4:-1.12416 5:2.4496 6:3.11717 7:3.34905 8:0.871239 9:0.480602 10:2.00133 11:-0.37931 12:1.33025 13:-0.394085 14:0.887797 15:-0.356527 16:1.23252 17:-0.203855 
-0.1625223761869037 1:-0.0994396 2:0.124783 3:0.426512 4:-1.22723 5:1.78424 6:3.02578 7:2.90382 8:1.36341 9:0.183661 10:0.6483 11:0.313784 12:1.56615 13:1.08499 14:0.192471 15:0.327911 16:0.150241 17:0.729865 
-0.2051475443071559 1:-2.94163 2:-0.855902 3:-0.536591 4:-0.976055 5:0.361909 6:1.84793 7:1.55771 8:-0.946564 9:0.205275 10:1.43472 11:0.376952 12:0.586275 13:1.4053 14:0.749032 15:-0.832435 16:0.268441 17:-0.71337 
-0.01861953100947276 1:-1.56661 2:-1.05186 3:1.11232 4:-0.951144 5:-0.146012 6:4.25226 7:1.20315 8:-0.648014 9:-1.23 10:-2.43413 11:0.392528 12:1.05501 13:-0.805806 14:0.524442 15:-1.65595 16:-0.992128 17:-0.54869 
-0.05204733743199019 1:-1.44766 2:-0.736056 3:2.98306 4:-1.15414 5:0.734402 6:1.19361 7:0.155008 8:-1.20726 9:0.1932 10:1.27048 11:-0.259789 12:1.66335 13:0.325588 14:1.11003 15:-0.770266 16:1.52402 17:-0.200313 
-0.04017803562403086 1:-2.34258 2:-1.01476 3:2.39123 4:-1.45554 5:-0.40121 6:1.79816 7:1.3778 8:-0.159849 9:0.0590615 10:-1.60873 11:0.442607 12:0.55678 13:0.513634 14:0.520351 15:0.0999959 16:0.833778 17:2.24957 
-0.02693054687586636 1:0.55476 2:0.705198 3:3.58931 4:-0.35966 5:-0.0483275 6:1.42131 7:0.207006 8:-1.26993 9:-0.534136 10:-0.96796 11:0.193055 12:1.93203 13:-0.552213 14:0.968356 15:0.126507 16:1.39964 17:0.340547 
-0.02652499631005138 1:0.244148 2:-0.701809 3:2.18919 4:-1.2326 5:0.210898 6:2.50904 7:0.989357 8:-0.821921 9:0.295599 10:-0.544736 11:0.1449 12:1.48551 13:-1.16584 14:0.949568 15:-0.382107 16:1.92151 17:1.15181 
-0.05523692451352472 1:2.18704 2:1.6384 3:-0.877657 4:0.491196 5:-0.583779 6:-0.96494 7:-0.806039 8:0.315315 9:0.802715 10:0.965539 11:0.758497 12:-0.207096 13:1.99478 14:-0.773002 15:0.266518 16:0.578672 17:0.0195614 
-0.06871259375651105 1:0.890267 2:1.21572 3:-2.40049 4:3.3697 5:-1.17825 6:-0.943552 7:-1.47446 8:-2.29103 9:-0.0958596 10:-0.636118 11:0.354719 12:-1.23726 13:1.78515 14:-0.385471 15:0.371501 16:0.122045 17:-1.38428 
-0.0987597934909282 1:3.4221 2:0.519236 3:0.911463 4:1.33466 5:-0.100279 6:0.443656 7:-1.49252 8:-0.812453 9:-0.134518 10:0.728695 11:1.44814 12:-0.584749 13:3.10392 14:-0.426009 15:-0.119983 16:0.154457 17:0.0432577 
