svm_type epsilon_svr
kernel_type rbf
gamma 0.0588235
nr_class 2
total_sv 43
rho -0.184824
SV
0.8276660507595239 1:2.18704 2:1.6384 3:-0.877657 4:0.491196 5:-0.583779 6:-0.96494 7:-0.806039 8:0.315315 9:0.802715 10:0.965539 11:0.758497 12:-0.207096 13:1.99478 14:-0.773002 15:0.266518 16:0.578672 17:0.0195614 
0.6204449381960886 1:0.707395 2:1.46661 3:-1.91348 4:0.829378 5:-0.566051 6:-0.128791 7:-0.502514 8:-0.720842 9:0.193227 10:0.0240766 11:0.601189 12:-0.193351 13:1.64229 14:-0.338211 15:1.26945 16:0.22366 17:-1.66227 
0.6937441116720844 1:0.945542 2:0.606044 3:-1.13025 4:2.27789 5:-1.57201 6:-2.42073 7:-0.42449 8:-1.95634 9:-0.95319 10:-0.884388 11:0.825142 12:-0.285665 13:1.61828 14:0.348254 15:-0.18933 16:0.209332 17:-0.81683 
0.4075572733677824 1:0.397751 2:0.965968 3:-0.800786 4:1.21252 5:-1.52004 6:-0.776065 7:-0.788385 8:-1.70105 9:-0.643056 10:-1.23378 11:0.219894 12:-0.540193 13:2.16826 14:-0.898267 15:1.69388 16:-0.309014 17:-1.22014 
0.08894495030920369 1:0.890267 2:1.21572 3:-2.40049 4:3.3697 5:-1.17825 6:-0.943552 7:-1.47446 8:-2.29103 9:-0.0958596 10:-0.636118 11:0.354719 12:-1.23726 13:1.78515 14:-0.385471 15:0.371501 16:0.122045 17:-1.38428 
0.2761522369418553 1:1.91158 2:0.991299 3:-0.401124 4:2.58346 5:-0.282403 6:0.754394 7:-0.281488 8:-0.469124 9:0.134705 10:-0.66594 11:1.20151 12:0.228244 13:2.97654 14:-0.553588 15:1.3686 16:0.633933 17:-0.429775 
0.3974553881066908 1:3.4221 2:0.519236 3:0.911463 4:1.33466 5:-0.100279 6:0.443656 7:-1.49252 8:-0.812453 9:-0.134518 10:0.728695 11:1.44814 12:-0.584749 13:3.10392 14:-0.426009 15:-0.119983 16:0.154457 17:0.0432577 
-0.1049334332073346 1:-0.882078 2:-0.246902 3:-1.39411 4:0.101819 5:-1.43689 6:-0.477955 7:-0.48587 8:-2.57978 9:-0.775241 10:-1.24282 11:0.28397 12:-1.25898 13:-0.902397 14:-0.062888 15:-0.135569 16:-0.147105 17:-0.447408 
-0.06240256170481867 1:1.66776 2:1.32578 3:-0.573391 4:0.666896 5:-0.48276 6:0.680886 7:-0.403761 8:-0.296195 9:0.393191 10:-0.084263 11:0.0915474 12:-0.527611 13:-0.170947 14:0.321181 15:0.0694452 16:0.992159 17:0.495923 
-0.07468163039167186 1:-2.13021 2:-0.479327 3:-1.94307 4:-1.6199 5:-0.205901 6:-0.378313 7:-0.399486 8:-0.914361 9:0.525102 10:0.540907 11:0.231764 12:-0.869635 13:1.21804 14:0.160404 15:-0.510839 16:0.324651 17:-1.17524 
-0.1261798350351183 1:-1.22879 2:-0.964221 3:-1.96169 4:-0.0970011 5:-1.22438 6:0.562762 7:-0.569347 8:-2.18157 9:0.0623324 10:-1.34022 11:-0.190833 12:-2.49151 13:0.0154315 14:-0.653635 15:-0.489946 16:-1.11857 17:-1.22242 
-0.07654261480391736 1:0.676633 2:0.232222 3:-0.156367 4:-0.397748 5:-0.601409 6:0.483698 7:-0.611413 8:-1.62566 9:-0.593563 10:-0.80011 11:0.0477409 12:0.628177 13:0.632398 14:0.0382209 15:-0.397665 16:0.171813 17:-0.292181 
-1 1:0.710391 2:0.915922 3:0.00486351 4:0.349774 5:-1.17462 6:-1.13056 7:-0.531319 8:-0.107468 9:-0.301119 10:-0.0525425 11:0.042571 12:0.0429956 13:0.810372 14:0.146124 15:0.387188 16:0.1689 17:-0.431566 
0.1294640711099354 1:-0.174973 2:0.736493 3:0.0258838 4:-0.629576 5:-1.11481 6:0.333286 7:0.477534 8:-0.734463 9:-0.604386 10:-0.90772 11:0.43806 12:-0.349058 13:-0.385651 14:0.075585 15:-0.162215 16:0.271607 17:0.244063 
-0.003770049126712284 1:-2.86003 2:-1.99413 3:-1.88919 4:-1.58319 5:1.68729 6:3.73351 7:0.807883 8:0.413986 9:3.29108 10:1.97228 11:-0.231278 12:-1.62434 13:0.322219 14:-0.197281 15:1.38025 16:-0.174336 17:-0.934525 
-0.01145526114947782 1:-2.00092 2:-1.06501 3:-1.76141 4:-1.08101 5:1.37402 6:3.34477 7:0.459145 8:0.503188 9:2.86341 10:-0.389239 11:-0.294023 12:-2.75604 13:-0.806626 14:-0.845615 15:3.16431 16:0.198914 17:0.279855 
-0.02057567916625263 1:1.52569 2:1.11871 3:-1.05612 4:0.453756 5:1.82903 6:1.87604 7:-0.152624 8:2.41839 9:3.97251 10:1.5169 11:-0.279879 12:-0.547718 13:-0.21366 14:-0.300709 15:3.17431 16:1.69973 17:0.301459 
-0.03012072340559943 1:-0.896114 2:0.0555837 3:-0.70756 4:-0.308735 5:0.743106 6:0.691522 7:-0.238703 8:0.873491 9:2.73588 10:1.36328 11:0.00634844 12:-1.38729 13:1.04829 14:0.0495593 15:2.41275 16:0.149003 17:-0.216558 
-0.05996876862922054 1:0.75156 2:0.446601 3:-0.439015 4:-0.0415398 5:2.0651 6:1.60172 7:0.615819 8:2.45038 9:2.96639 10:3.09115 11:0.24154 12:0.181283 13:1.10807 14:0.752913 15:0.589977 16:1.02227 17:0.568581 
-0.06903419125973234 1:0.138857 2:0.150232 3:0.775831 4:-0.692307 5:1.29721 6:1.45685 7:0.00977242 8:0.685751 9:2.73989 10:0.747722 11:-0.264039 12:-0.729009 13:2.1166 14:-0.101078 15:2.50057 16:0.638183 17:0.346852 
-0.04289997948907655 1:-2.33585 2:-1.82633 3:-2.01079 4:-1.73582 5:2.91986 6:4.84378 7:0.549789 8:1.96356 9:3.37389 10:1.84699 11:-0.159528 12:-1.12925 13:0.34522 14:-0.526589 15:2.86834 16:0.0188986 17:-0.0892125 
-0.009106676311072729 1:-3.08646 2:-1.88477 3:-1.62291 4:-2.21727 5:1.81193 6:3.54966 7:0.398337 8:1.43554 9:3.12245 10:2.20766 11:-0.0293753 12:-1.50974 13:0.705422 14:-0.172725 15:2.10954 16:0.636733 17:-1.34974 
-0.0221536110516014 1:-1.90903 2:-0.672812 3:-2.69201 4:-1.85964 5:0.621652 6:0.908132 7:-0.138066 8:-0.0746879 9:2.42641 10:0.571468 11:0.267671 12:-1.59617 13:0.619585 14:-0.596302 15:1.33462 16:-0.351988 17:-0.698674 
-0.01503937263813804 1:-2.03908 2:-1.02169 3:-0.00746468 4:-1.54991 5:3.00937 6:2.51669 7:1.40617 8:1.94411 9:3.16854 10:0.542723 11:0.477453 12:-0.83 13:0.39725 14:-0.741422 15:4.43659 16:1.11523 17:0.556714 
-0.04355212756944288 1:1.43776 2:-0.601177 3:0.937391 4:0.649045 5:-1.85719 6:-2.2802 7:-1.862 8:-1.55261 9:-1.08113 10:-1.19435 11:1.74588 12:2.47618 13:0.93416 14:0.426308 15:-0.596484 16:0.618662 17:0.792087 
-0.03892387240375497 1:2.00318 2:1.03983 3:0.416141 4:-0.511177 5:-0.939648 6:-1.13681 7:0.973589 8:0.326025 9:-0.175635 10:-0.741515 11:1.61224 12:1.83651 13:1.53805 14:-0.156848 15:-0.334093 16:0.125686 17:0.576112 
-0.3414676413036895 1:1.33292 2:0.742222 3:-0.342135 4:0.218051 5:-0.318419 6:0.63586 7:-0.189989 8:1.20654 9:0.340608 10:-0.403926 11:2.06586 12:1.12589 13:1.10961 14:0.031655 15:0.473779 16:1.07508 17:0.270387 
-0.03047643715965733 1:1.11156 2:0.446503 3:-0.50454 4:0.0564284 5:-1.08032 6:0.0776261 7:-1.13129 8:-0.862941 9:-0.453421 10:-1.52196 11:2.1663 12:1.49207 13:0.427629 14:-0.120922 15:-1.11746 16:0.0192805 17:0.189126 
-0.2305591976640602 1:3.53654 2:1.50261 3:0.890525 4:1.42687 5:-1.82291 6:-3.01435 7:-1.00348 8:-1.75564 9:-0.991857 10:-1.36962 11:1.36114 12:0.850706 13:0.291529 14:-0.0428068 15:-1.72405 16:-0.669411 17:-0.180872 
-0.2333978185906281 1:1.07657 2:1.69597 3:-1.55347 4:0.816507 5:-0.58419 6:0.324487 7:-0.59734 8:-0.587364 9:0.327542 10:-0.915356 11:0.0807568 12:-0.749869 13:0.0390175 14:-0.390625 15:3.02977 16:2.11809 17:-1.0198 
-0.04335656858147936 1:1.35178 2:1.37223 3:-0.452854 4:1.98068 5:-1.30014 6:0.683115 7:-1.56428 8:-1.86755 9:-0.156575 10:-2.4289 11:0.426423 12:-0.330632 13:0.103924 14:-0.74951 15:2.24276 16:2.59743 17:-0.460975 
-0.2304738137152826 1:0.792043 2:1.40822 3:-0.849647 4:4.43755 5:-0.972778 6:-0.312901 7:-0.467319 8:-0.997993 9:-0.61283 10:-1.74241 11:0.0201607 12:-0.477383 13:-0.518335 14:-0.478594 15:1.55273 16:1.32978 17:-0.764835 
-0.2280387478078965 1:3.31092 2:3.29839 3:-1.00666 4:1.9884 5:-0.198795 6:0.0897992 7:-0.770328 8:-0.682542 9:0.530237 10:-0.357932 11:0.257463 12:-0.676045 13:-0.320783 14:-0.226247 15:2.30952 16:0.964231 17:-0.808768 
-0.1225462238688863 1:2.47603 2:2.38735 3:-0.249583 4:2.52222 5:-1.23455 6:-1.68813 7:-0.961101 8:0.0289888 9:-0.358785 10:-0.715084 11:0.099769 12:1.1507 13:-0.0585859 14:-1.03298 15:2.0873 16:0.875492 17:-0.606376 
-0.03413809768987083 1:-3.51986 2:-1.66777 3:1.73617 4:-2.17866 5:1.58099 6:3.90309 7:4.22669 8:1.11805 9:0.136361 10:0.498318 11:0.565587 12:1.27062 13:1.32265 14:0.179374 15:0.985527 16:0.892334 17:0.905266 
-0.01325158858892763 1:-0.928849 2:-1.08266 3:1.42523 4:-1.58491 5:0.266017 6:2.38164 7:2.91224 8:0.874383 9:-0.302118 10:-2.22029 11:0.547631 12:-0.574488 13:-2.20733 14:-0.199216 15:0.742297 16:-0.840122 17:0.315187 
-0.03494430796607972 1:-2.12693 2:-1.03036 3:1.94689 4:-2.48096 5:1.88786 6:5.00103 7:4.26744 8:0.997024 9:-0.423401 10:-0.614391 11:-0.0835646 12:1.56976 13:-0.929384 14:0.452099 15:-0.306616 16:0.948325 17:0.630692 
-0.009647672056851958 1:-3.18956 2:-1.06008 3:0.658132 4:-1.28401 5:1.34175 6:2.59267 7:3.90865 8:-0.031098 9:-0.112751 10:0.363782 11:-0.512647 12:-0.322462 13:0.192222 14:0.520495 15:-1.00618 16:-0.446053 17:0.0682841 
-0.01363608179982635 1:-0.552818 2:0.116931 3:1.95992 4:-1.12416 5:2.4496 6:3.11717 7:3.34905 8:0.871239 9:0.480602 10:2.00133 11:-0.37931 12:1.33025 13:-0.394085 14:0.887797 15:-0.356527 16:1.23252 17:-0.203855 
-0.01040025142110731 1:0.175686 2:0.142262 3:2.04006 4:-0.779125 5:1.76961 6:3.01915 7:3.99246 8:0.957795 9:-0.519476 10:0.329186 11:0.573391 12:1.24621 13:0.201841 14:-0.161393 15:-0.376405 16:-0.300346 17:-0.870793 
-0.014007047688037 1:-4.18036 2:-1.54919 3:1.90026 4:-1.81125 5:1.44969 6:3.83818 7:2.82257 8:1.32377 9:-0.329016 10:-0.615032 11:0.503153 12:0.670818 13:-0.430543 14:0.190501 15:-0.120336 16:-0.454339 17:0.146191 
-0.005403459589849236 1:-2.92624 2:-0.554033 3:2.39583 4:-1.86839 5:1.70743 6:4.36839 7:3.89345 8:1.67534 9:0.316005 10:0.105225 11:0.197141 12:0.16857 13:0.693556 14:0.0922603 15:0.00958458 16:-0.138391 17:1.39962 
-0.03434367762809237 1:-1.56661 2:-1.05186 3:1.11232 4:-0.951144 5:-0.146012 6:4.25226 7:1.20315 8:-0.648014 9:-1.23 10:-2.43413 11:0.392528 12:1.05501 13:-0.805806 14:0.524442 15:-1.65595 16:-0.992128 17:-0.54869 
