svm_type epsilon_svr
kernel_type rbf
gamma 0.0588235
nr_class 2
total_sv 56
rho -0.025674
SV
0.6188050960817805 1:-1.1768 2:-0.551419 3:-0.113593 4:-0.990774 5:0.117055 6:0.478542 7:0.103579 8:-1.19778 9:-0.0520806 10:-0.282859 11:0.171988 12:0.298201 13:0.313526 14:-0.106054 15:-1.44773 16:-0.22466 17:0.231502 
0.5948046729347496 1:1.66776 2:1.32578 3:-0.573391 4:0.666896 5:-0.48276 6:0.680886 7:-0.403761 8:-0.296195 9:0.393191 10:-0.084263 11:0.0915474 12:-0.527611 13:-0.170947 14:0.321181 15:0.0694452 16:0.992159 17:0.495923 
0.824332135486546 1:-2.13021 2:-0.479327 3:-1.94307 4:-1.6199 5:-0.205901 6:-0.378313 7:-0.399486 8:-0.914361 9:0.525102 10:0.540907 11:0.231764 12:-0.869635 13:1.21804 14:0.160404 15:-0.510839 16:0.324651 17:-1.17524 
0.249466173969521 1:-0.403915 2:-0.357038 3:0.0766632 4:-0.977727 5:-0.956248 6:0.454506 7:-0.288836 8:-1.51524 9:-0.465053 10:-0.953289 11:0.0669294 12:0.0184331 13:0.0584113 14:0.300273 15:-1.0586 16:-0.0640454 17:-0.35526 
0.3772126323845852 1:-1.22879 2:-0.964221 3:-1.96169 4:-0.0970011 5:-1.22438 6:0.562762 7:-0.569347 8:-2.18157 9:0.0623324 10:-1.34022 11:-0.190833 12:-2.49151 13:0.0154315 14:-0.653635 15:-0.489946 16:-1.11857 17:-1.22242 
1 1:-0.841306 2:-1.21944 3:0.077701 4:-0.362028 5:0.0119706 6:-0.210078 7:0.43884 8:0.16172 9:0.253669 10:0.795883 11:0.144026 12:1.3643 13:0.701391 14:-0.130515 15:1.33321 16:0.0951676 17:0.0836348 
1 1:-0.333683 2:-0.496044 3:-0.601958 4:-0.844553 5:-0.0459089 6:1.90244 7:0.555105 8:-0.686766 9:-0.0477715 10:-0.232386 11:0.345352 12:-0.268586 13:0.742045 14:-0.00682913 15:-0.0610666 16:-0.61209 17:0.00502266 
0.7817298154385273 1:1.56434 2:1.51167 3:0.274386 4:-0.182275 5:-0.0969527 6:0.151768 7:-0.194229 8:-1.07826 9:-0.0222985 10:-0.115652 11:0.330814 12:0.595481 13:-0.445131 14:0.646591 15:0.366531 16:0.885681 17:-0.378118 
0.4597621148767493 1:-2.85409 2:-0.948921 3:-1.67689 4:-1.35171 5:-1.45103 6:-1.22728 7:-0.649821 8:-2.21817 9:-0.90717 10:-1.66141 11:0.0994669 12:-1.57554 13:-0.919563 14:-0.25356 15:-1.822 16:-0.133203 17:-0.703498 
-0.3498645293610521 1:-0.972494 2:-0.0900511 3:-0.462676 4:-1.21227 5:-1.42962 6:0.173516 7:-0.516254 8:-1.95012 9:-0.342458 10:-0.345993 11:-0.151702 12:-0.712556 13:-0.233542 14:-0.314786 15:-0.83508 16:-0.209006 17:-0.140828 
0.2167518873407243 1:0.676633 2:0.232222 3:-0.156367 4:-0.397748 5:-0.601409 6:0.483698 7:-0.611413 8:-1.62566 9:-0.593563 10:-0.80011 11:0.0477409 12:0.628177 13:0.632398 14:0.0382209 15:-0.397665 16:0.171813 17:-0.292181 
0.1062690015585294 1:-0.993334 2:-0.661125 3:-0.330568 4:-1.22315 5:-1.16032 6:-0.364111 7:-0.716195 8:-2.84165 9:-1.14734 10:-1.03497 11:-0.0440384 12:-1.0698 13:0.211149 14:-0.0124568 15:-1.55934 16:-0.850864 17:-0.530568 
0.5185807575138938 1:-1.01875 2:-0.449893 3:-0.392653 4:-0.043952 5:-0.916283 6:-0.637458 7:-0.272662 8:-1.00136 9:-0.684401 10:-1.8768 11:0.0372237 12:-0.245506 13:-0.363203 14:-0.00249259 15:-0.700036 16:0.0647169 17:-0.0944565 
1 1:0.710391 2:0.915922 3:0.00486351 4:0.349774 5:-1.17462 6:-1.13056 7:-0.531319 8:-0.107468 9:-0.301119 10:-0.0525425 11:0.042571 12:0.0429956 13:0.810372 14:0.146124 15:0.387188 16:0.1689 17:-0.431566 
0.7211789064185461 1:-0.371068 2:0.0388718 3:-0.312157 4:-0.145744 5:-0.994892 6:0.838985 7:-0.507995 8:-1.6713 9:-0.650802 10:-1.04458 11:0.173525 12:0.0884077 13:-0.0340948 14:0.0293105 15:0.137848 16:0.190872 17:-0.32525 
0.209125223854284 1:-0.174973 2:0.736493 3:0.0258838 4:-0.629576 5:-1.11481 6:0.333286 7:0.477534 8:-0.734463 9:-0.604386 10:-0.90772 11:0.43806 12:-0.349058 13:-0.385651 14:0.075585 15:-0.162215 16:0.271607 17:0.244063 
-1 1:-2.31791 2:-0.937601 3:-1.2673 4:-1.12552 5:0.575945 6:0.357753 7:0.548172 8:-0.164266 9:1.8693 10:1.23127 11:0.241702 12:-0.230926 13:0.54772 14:0.11727 15:1.00785 16:0.18329 17:-0.609468 
0.1777401695838241 1:-2.41049 2:-0.958409 3:-1.44311 4:-1.69236 5:1.49493 6:1.61303 7:0.152305 8:0.541155 9:3.43032 10:0.576639 11:-0.23968 12:-1.08869 13:1.03549 14:-0.592172 15:2.67575 16:0.347348 17:-0.681988 
-0.03220756682878336 1:0.138857 2:0.150232 3:0.775831 4:-0.692307 5:1.29721 6:1.45685 7:0.00977242 8:0.685751 9:2.73989 10:0.747722 11:-0.264039 12:-0.729009 13:2.1166 14:-0.101078 15:2.50057 16:0.638183 17:0.346852 
-0.03359314877332826 1:-0.825616 2:-0.932214 3:0.295779 4:-1.49652 5:1.06568 6:2.41098 7:0.970545 8:0.212065 9:1.89127 10:0.84683 11:-0.0383274 12:-0.57631 13:0.953108 14:-0.278265 15:1.39784 16:0.250538 17:0.197186 
-0.07094385155587435 1:-1.90903 2:-0.672812 3:-2.69201 4:-1.85964 5:0.621652 6:0.908132 7:-0.138066 8:-0.0746879 9:2.42641 10:0.571468 11:0.267671 12:-1.59617 13:0.619585 14:-0.596302 15:1.33462 16:-0.351988 17:-0.698674 
-0.002152756772552042 1:0.58594 2:0.00415169 3:-0.24828 4:-1.15283 5:1.58929 6:2.33615 7:0.731289 8:0.677903 9:2.21705 10:0.277114 11:0.363049 12:-0.293811 13:-0.785357 14:-0.564545 15:2.57473 16:0.430199 17:0.048253 
-0.08831730150557172 1:-0.968114 2:0.336911 3:-0.784315 4:-1.11464 5:1.2731 6:1.56861 7:0.708529 8:0.814715 9:2.64716 10:1.18743 11:-0.13692 12:-0.4367 13:0.581171 14:-0.224268 15:0.411473 16:0.296348 17:0.628849 
0.01607177096726577 1:-1.91864 2:-1.16462 3:-0.0986556 4:-0.705173 5:1.97191 6:1.22552 7:0.676614 8:1.45606 9:2.3698 10:1.85755 11:0.409116 12:-0.815363 13:0.567224 14:0.326072 15:1.60182 16:0.764576 17:0.0649058 
-0.03243910858920739 1:2.00318 2:1.03983 3:0.416141 4:-0.511177 5:-0.939648 6:-1.13681 7:0.973589 8:0.326025 9:-0.175635 10:-0.741515 11:1.61224 12:1.83651 13:1.53805 14:-0.156848 15:-0.334093 16:0.125686 17:0.576112 
0.02780460188199841 1:0.0397222 2:0.527193 3:1.53909 4:-0.165489 5:0.266993 6:1.82219 7:0.535696 8:1.18525 9:-0.170031 10:-0.767532 11:2.38581 12:3.36718 13:1.39657 14:-0.089915 15:-1.16248 16:-0.253489 17:0.732572 
-0.09662201671386077 1:1.33292 2:0.742222 3:-0.342135 4:0.218051 5:-0.318419 6:0.63586 7:-0.189989 8:1.20654 9:0.340608 10:-0.403926 11:2.06586 12:1.12589 13:1.10961 14:0.031655 15:0.473779 16:1.07508 17:0.270387 
-0.4623242817554615 1:0.477915 2:-0.442552 3:0.333152 4:-0.780794 5:-1.23161 6:0.145589 7:-0.372821 8:-1.64575 9:-0.599632 10:-1.76985 11:0.589344 12:1.19336 13:-0.0442722 14:-0.683695 15:0.654743 16:0.517559 17:1.61467 
-0.3121987592392145 1:0.313991 2:-0.525687 3:-0.0920327 4:-0.669959 5:-1.40719 6:-1.05105 7:-0.500384 8:-1.77554 9:-0.684826 10:-1.69455 11:1.26704 12:1.09775 13:-0.807186 14:-0.125606 15:-1.17167 16:-0.12107 17:-0.919924 
-1 1:-0.696841 2:-0.678608 3:-0.0625209 4:-0.731243 5:-0.998873 6:0.757489 7:-0.474745 8:-1.07649 9:-0.674337 10:-1.17532 11:0.761041 12:-0.666679 13:0.775413 14:-0.557221 15:0.037039 16:-0.014419 17:-0.675689 
-1 1:-0.0616689 2:0.00151151 3:-0.313937 4:-0.346929 5:-1.16952 6:-0.150591 7:-0.166264 8:-0.344936 9:-0.481698 10:-1.10802 11:1.75955 12:0.917943 13:-0.190967 14:-0.168124 15:-0.174047 16:-0.484003 17:-0.599991 
-0.817661329389418 1:1.67806 2:1.71368 3:-0.531721 4:0.999859 5:-0.839195 6:0.434435 7:-0.605813 8:-0.295838 9:0.402873 10:-0.718635 11:-0.0542791 12:0.135068 13:-0.151463 14:-0.704279 15:1.9229 16:1.55572 17:-0.823359 
0.04058204809955668 1:1.68433 2:1.76992 3:0.33833 4:2.22779 5:-0.193522 6:0.955584 7:-0.199847 8:-0.272118 9:0.681694 10:-1.32936 11:0.703545 12:-0.173105 13:-0.526083 14:-1.42314 15:3.85337 16:2.70902 17:-0.0747409 
0.1379975619296508 1:2.01048 2:1.53167 3:-0.144158 4:1.30894 5:-1.08965 6:0.439019 7:-0.845989 8:-0.596873 9:0.134982 10:-0.975736 11:0.146035 12:-0.379602 13:0.0302228 14:-1.51502 15:3.58201 16:2.31236 17:0.262686 
0.05725530742476485 1:2.47117 2:2.55506 3:-0.793912 4:2.90921 5:-0.967275 6:-0.0741738 7:-0.9397 8:-0.277903 9:0.027782 10:-0.77453 11:0.0203746 12:0.292948 13:-0.879062 14:-0.815111 15:3.32408 16:2.07574 17:-0.13294 
-0.1995094200982763 1:0.916261 2:0.475812 3:-0.517924 4:1.92383 5:-0.599695 6:-0.138579 7:-0.626199 8:-0.830762 9:-0.376778 10:-1.48568 11:0.451168 12:-1.0626 13:-0.650458 14:-0.628601 15:2.017 16:2.41123 17:0.559667 
0.001619929911355224 1:-2.411 2:-1.20966 3:0.617454 4:-1.5593 5:0.793175 6:2.53256 7:2.32448 8:0.665842 9:0.0841033 10:0.617012 11:0.172303 12:1.24802 13:0.303054 14:-0.240904 15:0.193505 16:0.0749141 17:-0.31848 
0.02396732836798596 1:-0.565712 2:-0.436746 3:2.74902 4:-0.558495 5:0.983632 6:3.04858 7:2.3532 8:0.646778 9:-0.352844 10:-1.41762 11:0.770093 12:1.89053 13:-0.869526 14:0.484851 15:-0.684734 16:-0.576112 17:0.221794 
0.07528920980438265 1:-1.56295 2:-0.97296 3:2.06828 4:-0.577589 5:-0.100086 6:1.86954 7:1.97427 8:0.351476 9:-0.611348 10:-1.65623 11:0.539642 12:0.867211 13:-0.749256 14:-0.206143 15:-0.789121 16:-0.263455 17:0.330272 
-0.1624084405506962 1:-0.381642 2:-0.363931 3:1.91512 4:-0.271384 5:0.144381 6:0.75192 7:2.0162 8:0.607699 9:-0.818304 10:-0.0386363 11:0.150067 12:1.0875 13:-0.472463 14:-0.342767 15:-0.475026 16:-1.26117 17:2.09048 
0.006298560886692558 1:-3.44541 2:-0.783716 3:-0.398751 4:-1.43021 5:0.489456 6:3.67071 7:2.45093 8:0.529467 9:0.155212 10:-0.10949 11:0.229105 12:-0.560366 13:0.0591767 14:0.236513 15:0.792032 16:-0.103321 17:-0.709718 
-0.5057394717666565 1:-2.23712 2:-1.10617 3:-0.183972 4:-1.93508 5:-0.401757 6:1.51182 7:1.88739 8:-0.998174 9:-0.486185 10:-1.63709 11:-0.485437 12:-0.864096 13:-0.776937 14:0.418837 15:-0.582153 16:0.088756 17:-1.04627 
-0.03798621472702856 1:-1.30457 2:-1.51069 3:1.93593 4:-0.148314 5:-0.842776 6:0.322141 7:0.287755 8:-1.89096 9:-1.26826 10:-0.852728 11:0.447368 12:1.48504 13:1.9789 14:0.939651 15:-1.26859 16:-0.12775 17:0.861894 
0.03496642338593128 1:-2.46899 2:-0.896641 3:2.9424 4:-0.866406 5:0.958501 6:1.39311 7:2.26426 8:0.748936 9:0.00615078 10:0.747786 11:0.427697 12:1.9038 13:0.801759 14:1.00106 15:-1.11497 16:0.67436 17:0.313801 
-0.1611723047929741 1:-2.94163 2:-0.855902 3:-0.536591 4:-0.976055 5:0.361909 6:1.84793 7:1.55771 8:-0.946564 9:0.205275 10:1.43472 11:0.376952 12:0.586275 13:1.4053 14:0.749032 15:-0.832435 16:0.268441 17:-0.71337 
-0.2042928715175163 1:-1.7916 2:0.0639919 3:1.01751 4:-0.658714 5:0.348546 6:1.3867 7:0.643186 8:-0.639706 9:-0.406517 10:-0.540097 11:0.428699 12:2.00154 13:0.554261 14:0.97332 15:-1.09455 16:0.750966 17:1.00187 
-0.4487943295328137 1:0.91896 2:-0.169354 3:2.82512 4:-0.15337 5:-0.799031 6:0.317713 7:0.0771056 8:-2.48164 9:-0.662389 10:-0.931342 11:0.197146 12:0.0965043 13:-0.0299631 14:0.438778 15:-1.0062 16:0.0923825 17:0.144053 
-0.7895934359409831 1:-0.170571 2:-1.22246 3:0.688837 4:-1.09659 5:0.336753 6:1.94409 7:0.634763 8:-0.767557 9:0.27794 10:-0.232737 11:0.0923753 12:1.49597 13:0.368746 14:0.798475 15:-0.864591 16:0.677186 17:-0.393367 
-0.09469333456633414 1:-0.510663 2:-0.840935 3:0.945359 4:0.118832 5:0.551642 6:3.2964 7:1.27212 8:0.138 9:-0.494673 10:0.0619441 11:0.596225 12:1.38813 13:-0.0627508 14:-0.0867408 15:0.596814 16:0.127436 17:1.38508 
-0.04202652941984198 1:-1.40016 2:-0.965489 3:3.42884 4:-0.519378 5:-0.141714 6:0.27531 7:0.208816 8:-1.42791 9:-1.11298 10:0.410011 11:0.245652 12:0.317173 13:0.877769 14:0.576605 15:-0.768131 16:0.291483 17:0.323289 
0.3639208696823589 1:-0.736835 2:-1.20502 3:2.62234 4:-1.06891 5:0.269946 6:1.72148 7:0.164845 8:-0.719199 9:-0.363164 10:-0.894532 11:0.780696 12:2.1856 13:1.05492 14:1.19561 15:-1.65567 16:0.910087 17:0.987024 
-0.4465539181228692 1:-0.781549 2:-0.680208 3:1.11148 4:-0.835811 5:-0.0594789 6:0.0453976 7:-0.040327 8:0.77852 9:0.178319 10:-0.180536 11:0.264901 12:2.16801 13:0.224522 14:0.73983 15:-1.0431 16:0.72802 17:1.06345 
-0.4762281066872214 1:2.18704 2:1.6384 3:-0.877657 4:0.491196 5:-0.583779 6:-0.96494 7:-0.806039 8:0.315315 9:0.802715 10:0.965539 11:0.758497 12:-0.207096 13:1.99478 14:-0.773002 15:0.266518 16:0.578672 17:0.0195614 
-0.5034914772982849 1:0.707395 2:1.46661 3:-1.91348 4:0.829378 5:-0.566051 6:-0.128791 7:-0.502514 8:-0.720842 9:0.193227 10:0.0240766 11:0.601189 12:-0.193351 13:1.64229 14:-0.338211 15:1.26945 16:0.22366 17:-1.66227 
-0.2654087019169805 1:0.945542 2:0.606044 3:-1.13025 4:2.27789 5:-1.57201 6:-2.42073 7:-0.42449 8:-1.95634 9:-0.95319 10:-0.884388 11:0.825142 12:-0.285665 13:1.61828 14:0.348254 15:-0.18933 16:0.209332 17:-0.81683 
-0.005308992361403121 1:0.397751 2:0.965968 3:-0.800786 4:1.21252 5:-1.52004 6:-0.776065 7:-0.788385 8:-1.70105 9:-0.643056 10:-1.23378 11:0.219894 12:-0.540193 13:2.16826 14:-0.898267 15:1.69388 16:-0.309014 17:-1.22014 
